/***************************************************************************//**
 * @file
 * @brief MTD application logic.
 *******************************************************************************
 * # License
 * <b>Copyright 2021 Silicon Laboratories Inc. www.silabs.com</b>
 *******************************************************************************
 *
 * The licensor of this software is Silicon Laboratories Inc. Your use of this
 * software is governed by the terms of Silicon Labs Master Software License
 * Agreement (MSLA) available at
 * www.silabs.com/about-us/legal/master-software-license-agreement. This
 * software is distributed to you in Source Code format and is governed by the
 * sections of the MSLA applicable to Source Code.
 *
 ******************************************************************************/
// Define module name for Power Manager debuging feature.
#define CURRENT_MODULE_NAME    "OPENTHREAD_SAMPLE_APP"

#include <string.h>
#include <assert.h>
#include <math.h>

#include <openthread/cli.h>
#include <openthread/dataset_ftd.h>
#include <openthread/instance.h>
#include <openthread/message.h>
#include <openthread/thread.h>
#include <openthread/udp.h>
#include <openthread/platform/logging.h>
#include <common/code_utils.hpp>
#include <common/logging.hpp>
#include <openthread/thread.h>
#include <openthread/coap.h>
#include "utils/code_utils.h"
#include "sl_button.h"
#include "sl_simple_button.h"
#include "sl_simple_button_instances.h"
#include "sl_led.h"
#include "sl_simple_led_instances.h"

#include "sl_component_catalog.h"
#ifdef SL_CATALOG_POWER_MANAGER_PRESENT
#include "sl_power_manager.h"
#endif
// Constants
#define MULTICAST_ADDR "ff03::1"
#define MULTICAST_PORT 123
#define RECV_PORT 234
#define SLEEPY_POLL_PERIOD_MS 10000
#define MTD_MESSAGE "mtd button"
#define FTD_MESSAGE "ftd button"

#define MODEL_URI     "Local_Model"
otCoapResource mResource_Model;
otCoapResource mResource_Heartbit;
otCoapResource mResource_actualinf;
char *ModelUriPath=MODEL_URI;
uint16_t myText_length = 0;
#define HEART "heartbit"
#define actual "actualinf"
char *heartUriPath = HEART;
char *actualinfUriPath = actual;

static uint8_t get_post_state[30] = "modeldata1";
float accuracy = 50.77776f;
int taille = 0;

// déclaration des paramètres du RNN


#define PatternCount  6
#define InputNodes  90
#define HiddenNodes 40
#define OutputNodes  6
#define InitialWeightMax 0.9
#define Records_count 360
int actual_partition = 0;
float Error;
float LearningRate = 0.1;
float Momentum = 0.9;
float Accuracy = 0;
float Precision = 0, Recall = 0;
float F1 = 0;
int batch_size =  10; //10*6 IID data == 60 records
int SGD_iteration = 3;
int batch_index[60];
float threshold_training = 0.00005; // accuracy computation
float threshold_evaluate = 0.01;  // accuracy computation
float Hidden[HiddenNodes] = {};
               float Output[OutputNodes] = {};
               float HiddenWeights_old[(InputNodes+1) * HiddenNodes+1] = {};
               float OutputWeights_old[(HiddenNodes+1) * OutputNodes+8] = {};
               float HiddenWeights[(InputNodes+1) * HiddenNodes+1] = {};
               float OutputWeights[(HiddenNodes+1) * OutputNodes+8] = {};  //+6 : +2 +2 training accuracy && evaluation +3 for Momentum, learning rate && sgd iteration && threshold training && threshold evaluation
               float HiddenDelta[HiddenNodes] = {};
               float OutputDelta[OutputNodes] = {};
               float ChangeHiddenWeights[(InputNodes+1) * HiddenNodes] = {};
               float ChangeOutputWeights[(HiddenNodes+1) * OutputNodes] = {};
               int TP[6]=  {0,0,0,0,0,0}, TN[6]=  {0,0,0,0,0,0}, FP[6]=  {0,0,0,0,0,0}, FN[6]=  {0,0,0,0,0,0};
               float dataset[60+60+60+60+60+60][90] = // [Jog+Walk+Downstairs+Upstairs+Standing+Sitting][features]
                                   {




                                       //// Client 1

                                       ////Jogging
                                       {4.7943625,13.6748295,-5.284695, -10.310603,19.57244,4.671779, 15.322891,17.733692,0.42223078, 2.7649305,8.539958,-2.1792557, 13.756551,12.680544,2.5606253, -5.202973,14.9006605,3.6774938, 7.43671,-1.1168685,1.1168685, 13.211738,12.067628,4.099725, 9.234595,6.238119,-1.6889231, -0.6537767,12.14935,5.5162406, 9.697687,1.4573772,0.8036005, -0.42223078,17.079916,-6.2789803, -5.597963,19.57244,3.405087, 8.076866,14.859799,-1.4165162, 13.593107,15.091345,4.2904096, 7.273266,3.9499009,2.1792557, 5.284695,13.6748295,-5.325556, 14.859799,14.709975,1.9477097, -3.3642259,-10.228881,-11.495573, 0.10896278,17.011814,-4.2904096, 14.9006605,18.34661,1.4165162, -2.7921712,8.62168,4.671779, 7.164303,0.23154591,1.4573772, -1.607201,18.659876,-3.336985, 3.759216,19.57244,4.5219555, -3.9090397,14.560152,-5.597963, 17.965239,18.38747,0.6537767, -2.7513103,12.026767,3.568531, 1.0760075,16.589584,-6.4015636, -1.2258313,19.57244,4.2495484},
                                       {5.597963,13.947236,13.525005, 4.862464,10.419566,-4.630918, 9.507003,12.789507,5.09401, 9.00305,2.4108016,2.3426998, 2.3426998,3.0237172,3.759216, -0.88532263,19.57244,5.7477865, -4.099725,14.750836,-8.19945, 6.1291566,18.38747,-0.14982383, 7.3141265,11.495573,4.6036777, 9.507003,0.88532263,0.7627395, 4.8216033,19.000385,1.4573772, 7.082581,14.560152,10.310603, 3.3778462,7.246025,-3.3642259, -4.5900574,10.841797,3.445948, 6.8237944,1.3075534,1.3756552, 8.62168,8.730643,-0.23154591, 13.211738,18.578154,2.6014864, 7.0553403,12.912089,0.61291564, -7.43671,14.015338,3.718355, 5.434519,0.53119355,1.879608, 12.789507,18.237646,3.3778462, -4.671779,11.141444,-3.486809, 1.56634,1.6889231,-8.471856, 4.0588636,11.645397,6.469665, 10.228881,1.8387469,1.0760075, 5.6252036,17.270601,-6.2108784, -7.3549876,19.531578,6.0201936, -3.255263,-6.2789803,-7.273266, -0.9942854,10.337844,4.1814466, 11.727119,-0.27240697,0.040861044},
                                       {4.7126403,17.543009,7.1234417, 1.607201,4.7126403,-2.9556155, 17.270601,16.208214,0.7627395, -3.7864566,9.507003,4.6036777, 9.847511,0.38136974,-0.27240697, -5.5162406,18.850561,-5.325556, 4.3312707,19.231932,2.8330324, -0.08172209,7.6273947,-0.61291564, 4.5219555,7.1234417,-1.525479, -4.399372,11.917805,3.9090397, 1.1168685,7.8589406,4.1814466, 13.293459,18.04696,3.0237172, 0.8036005,4.944186,2.1792557, -3.5276701,16.467001,-6.3198414, 15.4046135,19.000385,-1.1168685, -4.7535014,8.962189,4.6036777, 9.765789,0.313268,1.0351465, -7.8180795,19.57244,-4.9850473, -0.38136974,17.352324,-3.1463003, 15.091345,18.918663,-0.3405087, -2.5333846,10.119919,3.9499009, 10.923519,0.14982383,-0.23154591, 6.2108784,6.5922484,1.2258313, -7.5456724,-11.223166,-8.921328, 1.56634,15.241169,0.27240697, 12.4489975,17.161638,-4.1814466, -5.012288,9.112013,2.1792557, 6.238119,3.5957718,2.7649305, -7.43671,19.422615,-2.3018389, 10.378705,11.495573,5.5571017},
                                       {-7.164303,-4.4810944,-4.7535014, -0.7218784,15.023244,-1.6889231, 9.384419,14.560152,-2.5606253, -6.469665,11.114203,2.9147544, 1.334794,2.9556155,4.944186, -0.38136974,19.531578,4.7943625, -6.0474343,-6.469665,-3.0645783, -6.851035,-2.5333846,-4.2086873, 2.0294318,5.597963,-2.7513103, 12.980191,13.824653,4.372132, 9.043911,2.3018389,1.1441092, 5.47538,16.276316,-5.407278, -5.053149,19.57244,5.8976107, 13.906375,15.826844,2.3018389, -7.04172,-7.04172,-2.5606253, 3.7864566,14.9006605,5.284695, 4.4810944,5.8567495,-0.5720546, 11.073342,12.721405,5.053149, -4.903325,10.841797,2.070293, 4.7126403,1.7978859,5.325556, -9.575105,19.57244,4.2495484, 0,1.5390993,1.7570249, -3.1054392,2.070293,3.0237172, 6.973618,4.372132,-1.879608, 13.375181,17.66559,-2.1792557, -7.246025,9.915613,3.405087, 11.141444,0.42223078,0.7627395, 1.8387469,17.965239,-1.0760075, 6.5513873,10.61025,4.440233, -1.6480621,-6.5922484,-5.6252036},
                                       {-1.879608,11.114203,4.8216033, 9.384419,1.7978859,0.040861044, -6.6331096,19.57244,-4.2086873, 13.633968,17.692831,-0.9942854, -5.243834,-10.419566,-8.158588, 6.0882955,9.00305,0.38136974, 6.2108784,12.176591,-3.173541, -5.597963,11.304889,3.405087, 11.836082,0.53119355,0.53119355, -0.42223078,18.727978,-5.434519, 0.313268,19.57244,3.718355, 8.962189,9.765789,3.8273177, 4.944186,11.536434,-2.3018389, 14.137921,15.213928,3.5957718, 5.366417,6.891896,4.8216033, -5.243834,19.57244,3.759216, 17.24336,16.548723,3.759216, 4.862464,13.33432,4.630918, 3.9499009,8.471856,-3.173541, -5.6660647,13.143636,3.173541, 3.568531,2.3426998,5.053149, 2.4516625,9.997335,-0.040861044, 9.656827,17.965239,1.6480621, -5.7477865,-7.5865335,-5.5162406, 1.56634,16.08563,5.2165933, 12.830367,17.474907,-1.6480621, -5.407278,8.730643,2.5333846, 2.4108016,4.0588636,4.1814466, -0.6946377,19.504337,3.173541, -5.597963,-5.7477865,-3.5276701},
                                       {2.3426998,14.7916975,11.141444, 4.5628166,10.269742,-3.405087, -5.5571017,11.75436,3.9499009, 2.7240696,1.6889231,4.0588636, -5.8158884,19.57244,5.8567495, -5.7477865,-3.214402,0.42223078, 0.46309182,13.797412,11.958665, 5.829509,-1.1168685,-3.5957718, 14.519291,18.8097,0.61291564, 1.879608,5.6660647,4.2904096, 2.7649305,2.7921712,4.862464, -6.782933,19.57244,3.8681788, -1.2258313,0.23154591,1.4982382, -2.5333846,10.841797,9.656827, 6.5922484,-1.1849703,-3.1054392, -3.636633,12.598822,4.7535014, 6.3607025,2.6014864,1.4165162, -8.499097,19.57244,-3.1463003, 5.5162406,7.7363577,2.982856, -5.597963,-12.5579605,-11.686258, -0.5720546,14.2877445,-4.2904096, 11.563675,19.340895,0.14982383, -0.040861044,7.5865335,5.5162406, 5.5571017,2.1111538,2.2201166, 6.5922484,10.147159,0.46309182, -8.19945,-7.246025,-8.308413, -0.040861044,12.762266,-1.525479, 17.311462,16.657684,-0.42223078, -6.701211,11.958665,3.759216, 8.580819,1.6889231,0.6946377},
                                       {-9.152874,-4.630918,-5.09401, -5.012288,14.2877445,-9.724928, 6.238119,-3.0237172,-0.95342433, 8.730643,18.305748,-2.7921712, -4.3312707,11.114203,3.0237172, 11.958665,2.4108016,1.9477097, -3.5276701,16.507862,-4.1814466, 8.471856,-0.8036005,-3.3642259, -4.671779,11.604536,3.9499009, 8.349273,3.0645783,3.0645783, -5.47538,19.57244,5.434519, 17.815414,17.883516,2.7649305, -0.040861044,8.349273,0.53119355, 1.9477097,8.049625,-3.405087, -4.5900574,10.882658,2.3699405, 3.9090397,0.040861044,3.6774938, -12.258313,19.57244,0.040861044, 14.369467,19.109348,1.9885708, 9.724928,17.352324,-0.14982383, -9.847511,13.525005,3.5957718, 9.997335,3.173541,3.5276701, 2.152015,19.57244,2.5333846, -6.510526,0.92618364,1.1849703, 1.7978859,11.454713,1.0351465, 9.302697,15.091345,-3.8681788, 3.336985,13.0619135,3.5957718, 10.269742,3.445948,1.920469, 5.829509,16.630445,-6.973618, 16.126492,13.988097,1.1168685, -6.782933,-12.176591,-11.645397},
                                       {-4.2495484,15.363752,-7.205164, 14.437569,18.278507,0.23154591, 2.3426998,7.6954966,5.175732, 5.6252036,13.184497,-0.7218784, 12.789507,18.727978,2.3426998, -3.445948,-10.419566,-8.62168, 0.3405087,15.050485,-2.1111538, 5.366417,16.780268,-2.070293, -4.0588636,11.686258,4.0180025, 2.4108016,-0.42223078,4.1814466, -6.851035,19.57244,4.9850473, 16.930092,16.43976,2.7921712, -6.510526,-8.008764,-5.407278, 3.1054392,10.691973,4.7535014, 9.847511,2.1792557,0.38136974, 2.6832085,14.246883,-3.173541, -4.140586,19.57244,5.7886477, -4.2086873,0.313268,1.2666923, -4.372132,4.140586,5.09401, 10.732834,8.430995,-2.4108016, 6.742072,12.14935,4.3312707, 10.119919,3.255263,2.4925237, 3.0645783,16.249075,-6.5513873, -8.308413,19.57244,5.5571017, 15.173067,10.119919,3.445948, -9.084772,-0.7627395,-1.6889231, 13.525005,10.119919,3.636633, 4.399372,6.3198414,5.243834, 8.240311,11.141444,-1.607201, -13.252599,19.57244,2.4925237},
                                       {4.630918,6.5922484,3.0237172, -6.891896,-2.4108016,-2.7240696, 6.932757,14.437569,-2.9556155, 9.765789,12.408136,5.09401, 8.812365,1.6889231,1.7297841, 1.4165162,18.34661,-5.434519, -5.8976107,-11.032481,-11.372991, 4.671779,15.322891,12.258313, 5.597963,7.6273947,-3.405087, 16.86199,13.947236,2.7240696, -1.879608,9.043911,4.140586, 8.240311,0.84446156,1.334794, 4.2086873,10.228881,1.1168685, -7.6546354,-0.5720546,-0.38136974, 1.6889231,0.7218784,-3.8273177, 7.5456724,11.223166,4.099725, 9.425281,3.2961242,2.6423476, 4.4810944,15.704261,-3.9090397, -7.9270425,19.57244,3.336985, 15.6634,15.5135765,3.990762, 2.1792557,13.988097,-2.7921712, 15.132206,18.428331,-1.4165162, -3.2961242,10.269742,2.7649305, 9.615966,-0.6946377,0.38136974, 2.7649305,5.7886477,2.3699405, 4.9850473,4.862464,3.5957718, -4.8216033,0.95342433,5.7477865, 4.4810944,11.795221,0.53119355, 5.7886477,12.912089,6.0474343, 8.499097,1.8387469,1.7978859},
                                       {3.486809,14.601013,-2.5606253, -7.4639506,19.57244,1.7978859, 11.182305,17.120777,0.313268, 0.50395286,14.09706,-2.9556155, 12.980191,13.375181,2.7921712, 6.238119,5.09401,4.0588636, 0.040861044,11.34575,-0.6537767, -5.09401,19.57244,0.46309182, 4.630918,1.334794,3.173541, -4.671779,13.715691,-3.6774938, 7.1234417,3.486809,-5.284695, 4.2086873,5.829509,6.0474343, 3.1054392,13.906375,-5.053149, -10.106298,19.57244,6.0474343, 0.38136974,-0.5720546,2.6014864, -5.434519,4.0588636,3.0645783, 6.5922484,-0.23154591,-1.9885708, 3.990762,11.75436,3.718355, 11.073342,4.372132,2.5606253, 5.434519,-0.3405087,2.8738933, -6.851035,19.57244,3.5957718, 14.137921,18.305748,3.0645783, -3.405087,-1.9885708,-0.040861044, 8.662541,15.173067,-3.0237172, -5.6252036,9.956474,2.7649305, 10.61025,2.982856,2.7921712, -6.1700177,-8.471856,-8.049625, 3.1463003,12.912089,4.399372, 6.0474343,11.645397,-4.099725, -5.597963,12.108489,3.336985},
                                       {4.903325,1.0760075,4.3312707, 6.1700177,14.982383,-2.9556155, 15.472715,17.079916,3.0237172, 6.0201936,-0.5720546,-3.0645783, 2.5333846,10.923519,5.012288, 9.997335,2.2609777,0.8036005, 4.630918,3.445948,3.405087, -6.0201936,19.57244,4.140586, -4.440233,-4.7126403,-0.53119355, -2.4516625,10.228881,8.662541, 3.1054392,1.4165162,-4.372132, -4.2904096,12.4489975,4.944186, 8.308413,-0.9125633,0.84446156, -10.691973,19.57244,-1.1849703, 10.337844,19.531578,1.1849703, -0.040861044,0.6946377,0.9942854, 3.214402,2.1792557,-4.3312707, 0.6946377,11.536434,5.175732, 11.985906,1.56634,0.14982383, -7.9270425,-5.8976107,-4.4810944, 0.19068487,17.733692,4.3312707, 7.6273947,15.023244,-2.7513103, 10.800936,10.310603,2.4925237, 4.0180025,5.053149,4.2904096, 6.0882955,1.2258313,4.099725, -7.8861814,19.57244,-1.4573772, 10.038197,18.891422,1.3756552, 6.4015636,7.504812,2.6832085, 4.2904096,16.208214,9.697687, 3.255263,6.4015636,-3.9771416},
                                       {-4.2086873,12.912089,4.5628166, 10.18802,-1.4573772,1.2258313, 13.824653,18.237646,2.3426998, -1.6889231,12.217452,10.119919, -0.29964766,-2.1111538,-6.428804, 0,11.114203,5.407278, 7.8180795,1.0760075,1.607201, -6.891896,19.57244,-3.0237172, 10.038197,19.463476,1.56634, 8.158588,15.704261,-2.5606253, -5.175732,10.800936,2.3699405, 9.112013,2.7649305,2.7240696, 0.23154591,-0.46309182,1.4573772, -4.372132,5.2165933,6.3607025, -3.759216,10.841797,-2.070293, 5.6252036,11.536434,-3.405087, -6.891896,11.985906,2.4516625, 4.6036777,2.152015,4.7535014, -6.428804,19.57244,4.7126403, -3.486809,0.7218784,0.5720546, -2.3426998,6.238119,8.689782, -1.1849703,15.6634,-4.5900574, 13.6748295,19.15021,0.50395286, 0.313268,8.689782,5.243834, 9.384419,0.53119355,1.334794, -7.43671,19.57244,-4.862464, 6.5922484,19.504337,1.3075534, 11.372991,10.18802,4.4810944, 1.8387469,-0.27240697,-5.134871, 10.460427,19.15021,-1.0760075},
                                       {-8.008764,11.495573,3.2961242, 4.3312707,2.1792557,5.134871, -4.4810944,19.57244,5.012288, -6.0201936,-4.5900574,-0.61291564, 2.3426998,10.841797,8.158588, 5.325556,8.962189,-2.6423476, 14.47843,13.824653,3.759216, 6.0474343,5.829509,5.053149, 1.1168685,15.745122,-3.718355, 15.132206,15.785983,3.445948, -7.6273947,-9.084772,-10.228881, -2.4516625,15.704261,-3.2961242, 14.015338,17.474907,2.4925237, 4.4810944,7.504812,4.399372, 9.302697,13.102775,-2.9147544, 15.023244,16.208214,1.607201, -7.164303,-12.489859,-11.686258, -0.6946377,14.7916975,-7.014479, 12.639683,19.272793,0.53119355, -0.53119355,8.539958,2.8330324, 2.8738933,4.944186,3.255263, -5.597963,19.531578,-4.862464, 12.217452,12.830367,4.440233, -5.284695,-7.8861814,-8.049625, 1.4982382,13.102775,-3.0645783, 14.941522,15.554437,3.2961242, 5.8567495,5.9793324,4.4810944, 5.5571017,14.437569,-3.5957718, 13.947236,14.246883,-0.0, -7.5456724,-11.495573,-12.721405},
                                       {-7.4639506,12.721405,-1.8387469, 10.501288,18.578154,-0.53119355, 0.61291564,7.5456724,4.4810944, 8.158588,-1.2258313,2.7921712, -1.525479,13.484144,-3.336985, 17.352324,16.3989,1.334794, -4.5628166,10.800936,4.1814466, 9.384419,-0.040861044,1.4982382, -10.56939,19.57244,0.53119355, 11.917805,19.231932,0.95342433, 7.504812,13.184497,4.399372, 4.440233,2.3426998,-5.243834, -5.012288,11.182305,5.47538, 4.6036777,-0.19068487,4.1814466, 1.7978859,10.991621,-1.1441092, 13.525005,15.241169,2.7649305, 2.5606253,14.628253,-3.1463003, 16.3989,17.161638,-1.1849703, -7.7363577,14.246883,6.851035, 2.7649305,-0.19068487,3.3778462, -6.469665,-7.4639506,-5.5162406, 5.7477865,12.026767,3.7864566, 2.7649305,7.8589406,-3.405087, -7.246025,12.871228,4.903325, 9.915613,-1.4165162,0.3405087, 2.3018389,17.965239,-4.2086873, -1.6480621,19.531578,3.8681788, -5.9793324,14.437569,-6.2789803, 13.824653,19.109348,-0.9125633, -0.9125633,7.5865335,3.255263},
                                       {-1.7570249,19.422615,-5.7477865, -1.1441092,19.531578,3.1463003, 3.3778462,10.95076,11.073342, 0.040861044,-2.6014864,-6.932757, -4.903325,11.495573,4.5219555, 6.851035,1.7297841,2.3426998, 4.8216033,17.352324,-4.5900574, -3.255263,19.57244,4.7943625, 9.697687,14.246883,4.0588636, 0,10.991621,-4.3312707, 16.698545,16.276316,1.3075534, -1.334794,6.0882955,3.255263, -8.430995,19.57244,-2.2609777, 9.275456,18.537292,1.607201, -3.568531,-8.771504,-8.240311, -8.730643,7.3549876,-3.445948, 7.668256,16.970953,-1.1441092, 2.070293,7.9679036,2.9147544, 5.053149,0.313268,3.214402, 0.27240697,19.231932,-2.3426998, 1.6889231,18.8097,3.1463003, 4.8216033,10.760075,-1.6889231, -4.372132,16.630445,4.2904096, 4.0588636,4.5628166,4.9850473, -10.691973,19.57244,1.2258313, 8.921328,18.727978,1.1441092, 4.099725,10.61025,4.8216033, 5.053149,5.09401,-3.336985, -5.597963,12.912089,5.7477865, 7.6954966,-0.040861044,1.1849703},
                                       {-3.8681788,19.57244,-2.4516625, 6.782933,18.496431,2.3699405, 5.5162406,-0.53119355,-5.407278, 0.84446156,12.408136,5.597963, 8.921328,1.3075534,0.53119355, -5.202973,-10.882658,-9.956474, 1.56634,11.304889,9.384419, 1.4573772,2.4108016,-4.5628166, -3.8273177,11.495573,4.671779, 10.147159,1.0760075,0.3405087, 1.7297841,18.659876,-5.175732, -4.140586,19.57244,3.3778462, 11.182305,11.536434,2.8738933, -3.9499009,6.8237944,-0.42223078, 4.9850473,12.367276,-2.6014864, -7.7363577,11.536434,2.7921712, -5.5571017,19.57244,-4.671779, -4.7535014,-11.141444,-10.56939, 4.903325,17.733692,-2.7513103, 13.947236,19.041246,-1.525479, -6.701211,9.425281,3.255263, 10.079058,0.92618364,-0.08172209, -1.0351465,18.46919,-4.671779, 5.134871,19.463476,0.6946377, 13.021052,13.484144,4.7535014, 6.238119,6.238119,-3.405087, -7.1234417,9.234595,3.7864566, 5.6660647,4.7943625,2.5333846, 3.990762,12.9529505,-2.7240696, 11.563675,18.278507,1.3075534},
                                       {-4.9850473,-7.8180795,-8.580819, 2.3699405,11.876944,-0.9125633, 6.0201936,17.270601,-1.920469, -4.1814466,7.246025,3.0645783, 0.88532263,3.9499009,4.372132, -4.5900574,19.531578,2.6014864, -5.6660647,-3.1054392,-0.53119355, 0.08172209,12.14935,12.980191, 12.489859,8.349273,0.313268, 9.615966,19.272793,-0.29964766, -3.8273177,11.985906,4.6036777, 4.671779,-0.3405087,3.173541, -8.049625,19.57244,0.38136974, 13.143636,18.38747,3.2961242, 7.43671,15.935807,9.765789, 0.8036005,15.213928,-2.1383946, 15.5135765,16.017529,1.2666923, 3.2961242,3.336985,1.4573772, 4.630918,0.88532263,3.255263, 12.789507,15.636159,2.8738933, -1.6480621,7.504812,10.18802, 7.8861814,12.830367,-3.255263, 13.947236,14.628253,0.38136974, -3.568531,8.281172,3.445948, 4.2495484,-0.6946377,0.7218784, 3.5276701,19.19107,-3.405087, -3.8273177,18.155924,-0.38136974, 6.6331096,13.593107,2.9147544, 0.6537767,16.821129,6.4424243, -6.782933,-4.0588636,-7.9679036},
                                       {-3.568531,3.2961242,2.3426998, 4.4810944,9.575105,1.0760075, 6.2108784,9.00305,0.10896278, 3.7864566,13.293459,-0.08172209, -4.0180025,17.434046,-2.3018389, 8.076866,7.9679036,-1.3075534, -0.19068487,-0.46309182,-1.8387469, 4.862464,14.47843,9.765789, -0.84446156,11.563675,5.053149, 0.46309182,6.3607025,-2.6832085, -0.7218784,7.504812,2.0294318, 0.7218784,9.656827,1.6480621, 4.2495484,8.771504,-1.525479, 0.6537767,11.141444,0.23154591, -0.3405087,11.141444,-1.4573772, 0.6537767,8.962189,0.08172209, 1.0351465,8.008764,1.3075534, 0.6537767,10.269742,1.6889231, 0.61291564,9.00305,0.7218784, 1.7570249,8.962189,1.6480621, 2.3018389,9.343558,1.1168685, 1.334794,9.275456,1.1849703, 1.3075534,10.269742,1.0351465, 1.3756552,9.152874,1.920469, 1.6480621,8.539958,0.8036005, 0.9942854,10.119919,0.7218784, 1.4165162,10.732834,1.1441092, 1.4165162,9.915613,0.27240697, 0.61291564,10.119919,0.040861044, 1.3756552,9.80665,-0.46309182},
                                       {1.3756552,9.697687,-0.42223078, 2.6423476,9.888372,-0.0, 2.5606253,9.466142,-0.08172209, 1.4573772,10.882658,-0.6537767, 2.4108016,9.534244,-0.50395286, 1.4573772,9.193735,-0.53119355, -0.95342433,9.888372,-0.53119355, 0.313268,10.18802,-1.4982382, 1.6889231,10.119919,-1.3756552, 1.0760075,10.228881,-1.4982382, 0.9942854,9.915613,-1.1441092, 2.6832085,9.915613,-0.5720546, 2.1111538,9.724928,-1.7978859, 0.19068487,9.888372,-1.7297841, 0.7218784,9.956474,-1.6889231, 0.53119355,9.956474,-1.7570249, 0.9942854,9.888372,-1.7570249, 1.2258313,9.80665,-1.6889231, 0.7218784,9.888372,-1.879608, -0.10896278,10.079058,-2.0294318, 0.19068487,10.079058,-2.070293, 0.92618364,9.888372,-1.7297841, 2.152015,9.80665,-1.0351465, 2.4516625,9.80665,-0.95342433, 0.19068487,10.18802,-1.2666923, 0.6946377,9.615966,-0.95342433, 2.1792557,10.923519,1.3756552, 1.8387469,9.997335,1.7297841, 1.7570249,7.504812,1.9885708, 1.6480621,6.5513873,2.6014864},
                                       {2.6014864,8.771504,4.2495484, 3.0237172,8.894087,4.399372, 1.334794,12.026767,3.5276701, 1.3075534,8.390134,-3.214402, 2.152015,9.275456,-0.27240697, 1.2258313,9.084772,-1.0760075, 1.334794,9.043911,-0.84446156, 2.070293,9.575105,-0.7218784, 2.7240696,13.184497,-1.1441092, -0.6946377,12.680544,-2.982856, 0.14982383,11.958665,-1.0760075, 0.95342433,8.19945,0.08172209, 0,7.9270425,0.95342433, 1.4982382,5.284695,2.6014864, 5.5571017,12.176591,4.5628166, -0.19068487,7.7772183,4.0588636, 0.6946377,12.680544,2.8330324, -0.5720546,5.938472,-1.7570249, 2.070293,9.847511,0.8036005, 1.334794,9.043911,-0.7627395, 2.152015,9.466142,-0.6946377, 2.4108016,9.847511,-1.4573772, 4.5628166,14.1787815,-1.920469, -1.0351465,13.402422,-3.9499009, 2.8738933,9.043911,-1.1441092, 0,3.6774938,0.38136974, 3.1463003,10.038197,8.049625, 0.6946377,14.628253,3.0237172, 0.61291564,5.366417,-4.440233, 0.53119355,8.499097,0.95342433},
                                       {2.1792557,8.390134,-2.8738933, 2.6014864,10.800936,-1.1849703, 7.4639506,11.495573,-0.6946377, -2.5606253,13.633968,-1.920469, -1.4573772,14.410328,-0.040861044, 2.2609777,3.759216,-0.23154591, 0.7218784,3.405087,2.5606253, 2.2201166,15.322891,8.158588, -0.6946377,11.686258,-0.040861044, -0.3405087,9.275456,-1.7297841, 0.50395286,8.771504,-0.29964766, -0.6537767,8.62168,-2.0294318, 3.0237172,8.812365,-0.84446156, 2.4516625,8.430995,-0.29964766, 5.6660647,11.182305,-0.29964766, -1.9477097,12.026767,-1.920469, -0.6537767,15.854085,-4.5900574, 2.7921712,10.337844,-0.5720546, 0.19068487,4.372132,-1.3756552, 0.040861044,2.8330324,1.1849703, 6.701211,15.363752,9.80665, 3.990762,18.8097,-0.7627395, 3.486809,8.430995,-1.920469, 0.27240697,1.334794,0.6946377, 0.88532263,12.176591,-1.2258313, 4.9850473,14.941522,-0.19068487, -1.4573772,14.941522,-0.38136974, 0.6946377,14.47843,1.879608, 2.152015,3.486809,-0.14982383, -0.7218784,-0.50395286,-0.9125633},
                                       {-1.2666923,16.358038,-0.46309182, 2.8330324,17.774553,-2.3699405, 1.2258313,12.217452,2.6014864, 3.255263,0.040861044,0.3405087, 6.5922484,15.636159,5.5571017, 1.6889231,2.8738933,4.5219555, 3.7864566,8.62168,-4.8216033, -0.14982383,12.026767,-0.38136974, -2.4108016,12.598822,2.4108016, 5.5162406,1.607201,1.3756552, -2.070293,19.57244,-0.6537767, -2.6014864,-8.430995,-4.372132, 4.671779,6.5513873,3.5276701, 0.040861044,5.47538,-2.0294318, 8.281172,17.883516,2.3699405, 1.920469,8.158588,2.3426998, 0.5720546,1.4165162,-1.334794, -5.7886477,19.57244,2.152015, 8.580819,16.589584,4.630918, 2.6423476,6.0474343,3.759216, 2.6423476,15.023244,0.46309182, 8.390134,19.082108,-3.9499009, 0.3405087,15.894946,0.38136974, 4.8216033,5.012288,2.152015, 1.7570249,4.7535014,-2.3426998, -0.3405087,19.531578,1.4165162, 6.0201936,9.724928,-1.2258313, -3.8681788,-6.973618,-7.8861814, -1.0760075,16.930092,-1.9477097, 6.1291566,15.785983,-0.5720546},
                                       {-1.2666923,10.079058,1.8387469, 4.0180025,-0.50395286,0.27240697, 5.284695,16.698545,-4.7126403, -2.4516625,19.57244,-0.53119355, -3.2961242,-9.152874,-7.8861814, 0.50395286,9.724928,4.399372, 2.2609777,8.580819,-1.607201, 1.7978859,13.797412,1.7570249, 4.8216033,5.134871,0.92618364, 3.636633,-1.1441092,0.53119355, -0.84446156,19.57244,0.08172209, 1.1441092,1.56634,-0.19068487, -2.6423476,-5.938472,-6.1700177, 2.3018389,2.2609777,5.325556, -3.9090397,-0.5720546,-3.9499009, 8.921328,17.502148,1.2666923, 0.38136974,11.795221,3.445948, 2.1792557,-0.14982383,-0.10896278, -6.891896,19.57244,-2.1792557, -0.61291564,17.543009,2.5333846, 7.7772183,17.393185,-6.5922484, -2.2201166,13.565866,2.6832085, 4.8216033,5.366417,2.7921712, 5.597963,-0.10896278,0.9942854, 2.2201166,19.313654,-0.23154591, -1.1849703,-8.267551,-3.214402, 3.5957718,7.082581,1.2666923, 1.4165162,9.507003,-5.8158884, 3.2961242,14.601013,-0.27240697, 1.0760075,12.789507,2.3426998},
                                       {5.012288,0.92618364,0.3405087, 9.697687,12.408136,-5.134871, 1.9477097,14.369467,0.7627395, 5.8567495,4.2495484,1.607201, -6.701211,19.57244,-2.5606253, 7.1234417,15.826844,4.2904096, -2.4516625,-6.4015636,-2.0294318, 3.636633,3.445948,4.7943625, -0.14982383,2.6423476,-4.1814466, 6.2108784,17.393185,2.3018389, 5.829509,9.343558,3.2961242, 2.3699405,0.9942854,-2.2609777, -5.7477865,19.57244,-0.5720546, 6.469665,18.155924,1.920469, 3.7864566,14.328606,-2.070293, 6.5513873,16.208214,-0.08172209, 1.7297841,12.14935,3.0645783, 5.09401,-1.8387469,0.040861044, -3.5276701,-9.275456,-6.3198414, 2.2201166,16.04477,0.040861044, 2.070293,1.6480621,-5.053149, 4.7535014,17.583868,-3.173541, 3.2961242,13.797412,2.152015, 6.1700177,3.9090397,1.7570249, 3.759216,3.568531,-4.372132, -2.6014864,19.57244,0.19068487, 11.223166,15.595298,6.5922484, -0.27240697,0.7627395,4.140586, 7.014479,17.583868,-0.14982383, 9.193735,18.34661,-3.5957718},
                                       {2.8330324,14.7916975,0.6537767, 4.440233,6.5922484,3.0645783, 1.3756552,-1.1168685,-1.6889231, -8.117727,19.57244,-0.6946377, 13.443283,14.1787815,5.5571017, -3.173541,-8.049625,-3.0645783, 5.134871,8.349273,1.1849703, 3.486809,10.147159,-4.3312707, 1.0760075,14.369467,0.7627395, 6.782933,2.982856,2.152015, 7.6954966,5.5162406,-3.2961242, 2.6014864,18.8097,0.23154591, 3.1054392,2.2201166,-1.7297841, -2.982856,-4.671779,-4.5219555, 0.88532263,5.9793324,3.5276701, 10.337844,17.883516,-2.6832085, 2.8738933,12.340035,2.1111538, 3.5276701,-0.7218784,0.84446156, 2.4516625,17.924377,-3.214402, -1.525479,19.57244,-1.56634, -1.56634,-0.9942854,-1.334794, 2.1792557,7.3958488,-4.399372, 9.00305,19.109348,-2.3699405, 5.597963,14.437569,1.4573772, 5.706926,-2.2201166,0.38136974, -3.9499009,-5.012288,-1.4982382, 3.0645783,2.8330324,5.243834, 5.053149,18.237646,-0.9942854, 1.3075534,15.322891,-0.95342433, 0.88532263,9.888372,1.8387469},
                                       {6.701211,0.8036005,1.2258313, 6.6331096,14.47843,-4.630918, 10.079058,16.3989,4.2495484, 1.2666923,2.0294318,5.829509, 1.8387469,4.2086873,-2.8330324, 2.3018389,12.367276,0.6537767, 10.460427,19.000385,-1.3756552, -1.7297841,13.797412,2.982856, 4.140586,-2.6832085,0.27240697, -2.1111538,19.57244,-1.4982382, 9.112013,17.011814,6.2789803, -4.9850473,-5.5162406,-4.8216033, 2.7240696,9.275456,-0.95342433, 9.724928,19.000385,-1.7570249, -1.3075534,14.7916975,2.4925237, 5.2165933,-1.6889231,0.38136974, 4.440233,18.578154,-4.440233, 4.9850473,11.985906,4.0180025, 0.040861044,9.847511,-3.7864566, 7.3958488,18.237646,-3.5957718, 1.920469,13.375181,2.8738933, 6.4015636,-0.8036005,-0.08172209, 4.2086873,19.109348,2.070293, 11.985906,13.293459,5.134871, -3.8681788,-8.240311,-4.944186, 3.568531,9.425281,8.471856, -3.255263,5.706926,-7.205164, 12.026767,19.15021,-3.486809, 3.214402,13.593107,2.7921712, 5.9793324,-0.3405087,-0.10896278},
                                       {9.466142,13.0619135,-2.3426998, -6.0474343,19.57244,-1.920469, 8.62168,18.537292,0.42223078, 3.0645783,15.894946,-1.1168685, 2.2201166,11.727119,0.6946377, 7.504812,3.3778462,0.6537767, 3.1463003,-1.7570249,0.23154591, 4.7943625,6.469665,-2.2201166, -1.1441092,-1.920469,-2.2609777, -5.8158884,-8.008764,-6.510526, 4.3312707,9.575105,6.66035, -0.7627395,8.539958,-4.3312707, 5.5571017,14.818938,1.6480621, -0.29964766,12.830367,3.173541, 6.510526,-0.9125633,0.3405087, 8.62168,14.47843,-4.140586, 9.765789,16.126492,5.6660647, 1.2666923,3.1463003,6.891896, -3.1054392,-4.630918,-6.8237944, 7.5456724,16.698545,1.7297841, 2.4108016,11.223166,3.7864566, 2.8330324,-2.3699405,0.46309182, -4.862464,19.531578,-2.4108016, 11.304889,14.137921,7.014479, -1.56634,-6.2789803,-2.0294318, 2.982856,8.349273,8.962189, 3.255263,9.615966,-1.6889231, 3.7864566,13.6748295,2.5333846, 4.9850473,4.1814466,1.0351465, 5.6252036,3.5276701,-4.8216033},
                                       {2.982856,19.504337,0.84446156, 6.0882955,6.701211,-0.3405087, -3.6774938,-5.434519,-5.366417, 4.2495484,15.554437,-0.6537767, 6.6331096,16.780268,-1.0760075, 2.5333846,11.958665,2.3018389, 2.5606253,10.378705,3.5957718, 3.9499009,3.990762,-3.2961242, 3.336985,19.57244,1.1441092, 11.032481,15.363752,8.281172, 2.6014864,2.6423476,-0.08172209, -3.8681788,-3.8273177,-6.3198414, 7.43671,17.2025,1.0351465, 8.076866,17.161638,-3.7864566, 1.1849703,13.756551,2.3426998, 6.4424243,0.7627395,0.7218784, 6.0882955,18.918663,2.4925237, -3.6774938,-6.3607025,-4.0180025, 4.0588636,4.671779,3.568531, -0.14982383,2.5606253,-3.255263, 7.1234417,18.428331,1.9477097, 4.3312707,11.413852,4.5219555, 5.7477865,2.7240696,0.42223078, 5.5571017,8.158588,-0.040861044, 6.5513873,18.8097,3.336985, 11.372991,13.184497,5.243834, -2.4925237,-2.0294318,-2.6014864, -2.3018389,-1.2666923,-0.7218784, 0.7627395,4.944186,0.88532263, 8.662541,18.0061,-1.334794},
                                       {2.6423476,13.797412,3.7864566, 3.8273177,-1.607201,0.61291564, 6.4424243,16.739407,-3.173541, 0.10896278,19.57244,-0.84446156, -0.6537767,1.1441092,5.6660647, 0.5720546,4.0180025,-1.2666923, 11.304889,18.196785,-0.0, 3.8681788,12.14935,5.2165933, 6.0882955,-3.255263,0.23154591, -5.175732,-7.9270425,-4.3312707, 4.3312707,8.499097,8.580819, -2.4108016,3.3778462,-5.6252036, 3.9499009,14.206022,-0.6946377, 1.8387469,14.2877445,3.0645783, 5.706926,-0.040861044,0.14982383, 9.112013,10.923519,-2.4516625, -3.9090397,19.57244,-0.5720546, -0.08172209,-0.6946377,2.152015, 3.9090397,9.112013,-0.040861044, 2.6423476,10.038197,-5.09401, 5.2165933,14.015338,-0.23154591, 6.0474343,5.6660647,2.070293, 4.944186,-0.9942854,0.84446156, 2.6832085,1.4573772,-3.3642259, 3.445948,0,3.9090397, -3.255263,-3.9771416,-3.445948, 4.099725,14.818938,0.27240697, 6.469665,18.087822,-1.3075534, 4.903325,12.489859,3.0645783, 4.5628166,6.742072,3.405087},
                                       {-0.50395286,-1.7978859,-0.95342433, 7.7772183,7.8589406,-1.8387469, -5.09401,-3.445948,-3.718355, 5.47538,16.04477,0.7627395, 9.193735,16.630445,-4.862464, 0.6537767,11.75436,0.7627395, 7.8861814,3.214402,0.88532263, 3.214402,5.284695,-2.070293, 3.568531,19.57244,2.4516625, 4.140586,2.2609777,-1.2666923, -4.0588636,-6.1291566,-6.428804, 4.2495484,2.7649305,0.10896278, 7.8589406,17.24336,-0.38136974, 4.440233,10.310603,2.9147544, 4.1814466,-0.9125633,-0.14982383, 3.759216,18.305748,-3.759216, 0,19.57244,-0.7218784, 13.525005,12.026767,5.5162406, 4.2495484,12.489859,7.3141265, 3.7864566,11.686258,-1.7297841, 1.4573772,14.015338,0.19068487, 6.238119,5.284695,2.2201166, 6.0201936,2.6014864,-4.5219555, 3.255263,19.381754,-0.08172209, 12.912089,11.958665,6.66035, 1.1441092,13.021052,5.9793324, 5.407278,2.6014864,1.879608, 5.8976107,17.733692,-0.9125633, 5.7477865,11.686258,2.9147544, 4.440233,-2.1383946,0.313268},
                                       {-9.00305,19.57244,-8.812365, 2.2609777,5.284695,7.4639506, 3.0237172,3.486809,-6.0882955, 2.4108016,17.079916,1.334794, 6.932757,7.082581,3.0237172, 1.8387469,-1.2666923,-1.0351465, -7.3958488,19.57244,-2.2609777, 13.633968,11.604536,3.6774938, -4.4810944,-9.697687,-5.47538, 2.152015,14.7916975,2.1111538, 4.099725,15.132206,0.7627395, 0.42223078,11.75436,0.84446156, 6.932757,3.9499009,1.3075534, 9.00305,8.921328,-2.7513103, 5.8976107,18.155924,2.5606253, 0.6537767,-0.61291564,-0.88532263, -4.5900574,-2.982856,-2.3426998, 4.0588636,1.334794,-4.7126403, 4.671779,17.733692,0.040861044, 4.3312707,10.501288,2.8738933, 3.9090397,-2.070293,0.50395286, 0.5720546,19.231932,-5.8976107, -5.243834,-7.6954966,-3.8273177, 8.308413,16.657684,0.6537767, 5.325556,17.161638,-1.879608, 0.84446156,11.454713,0.42223078, 6.1291566,3.214402,1.7297841, 10.61025,9.80665,-3.405087, 5.325556,18.115063,0.040861044, 2.9556155,0.10896278,-1.4573772},
                                       {-4.862464,-2.9556155,-5.47538, 4.6036777,3.9499009,0.38136974, 3.8273177,9.656827,-4.2904096, 1.5390993,13.102775,1.4982382, 8.008764,4.7943625,1.0351465, 8.349273,-0.7627395,-4.1814466, -0.9125633,19.57244,-4.372132, 9.466142,16.930092,3.9090397, 0.5720546,-0.3405087,-0.95342433, -5.8567495,-6.5922484,-5.053149, 7.8861814,9.534244,-1.6480621, 8.19945,18.305748,-2.3018389, 3.8273177,11.495573,3.1463003, 2.3699405,-4.4810944,-0.9942854, 4.2086873,18.850561,-3.5957718, 15.595298,13.988097,6.5513873, 4.7126403,5.7886477,-1.9477097, -1.7297841,-6.1700177,-1.607201, 4.440233,5.9793324,6.742072, 1.4982382,6.0474343,-4.5219555, 2.6014864,16.017529,1.4165162, 6.2108784,5.7477865,2.2201166, 6.782933,2.6423476,-4.099725, 6.2108784,18.04696,1.7978859, 7.014479,15.826844,4.7943625, 4.1814466,11.836082,0.38136974, 3.6774938,12.598822,-1.1849703, 3.568531,5.366417,1.3075534, 6.701211,3.568531,-4.399372, 4.440233,19.422615,-1.1441092},
                                       {6.782933,5.8567495,-0.040861044, -1.920469,-5.6660647,1.0760075, -1.6480621,-1.1168685,2.4108016, -0.19068487,1.1849703,-4.2904096, 5.243834,16.780268,0.84446156, 4.0180025,9.847511,2.2609777, 6.742072,2.152015,1.0760075, -2.1111538,19.57244,-1.9885708, 13.797412,10.95076,4.140586, -3.8681788,-8.853226,-3.6774938, 2.0294318,15.5135765,-0.14982383, 2.152015,2.3018389,-2.8330324, 7.3549876,17.434046,-0.95342433, 1.8387469,12.367276,1.7978859, 6.5922484,5.7886477,3.3778462, 5.5571017,4.8216033,-5.09401, 2.6014864,19.422615,-1.1441092, 5.012288,1.4982382,-1.879608, -3.3642259,-5.366417,-6.0882955, 10.18802,13.211738,-0.53119355, 7.4639506,16.88923,-3.2961242, 2.6423476,11.727119,4.2086873, 5.2165933,-1.7570249,0.3405087, -1.4982382,19.57244,-3.336985, 2.5333846,19.57244,-1.607201, -6.932757,-8.471856,-9.847511, 11.372991,16.548723,-0.95342433, -2.3018389,-0.23154591,-3.2961242, 3.8681788,16.358038,1.4982382, 2.0294318,10.691973,3.5276701},
                                       {7.8589406,0.42223078,0.5720546, 9.043911,18.34661,3.8273177, -3.1463003,-2.7513103,-5.202973, 3.636633,18.537292,-2.7921712, 1.7297841,13.402422,-1.7570249, 2.0294318,11.495573,1.607201, 5.134871,1.7570249,0.42223078, 7.5865335,13.184497,-2.6832085, 9.765789,15.745122,5.284695, -1.7570249,-3.336985,-1.56634, -3.2961242,-0.6537767,-0.29964766, -1.7978859,3.7864566,2.4516625, 8.430995,18.34661,0.9942854, 0,11.917805,3.6774938, 2.8330324,-2.070293,-0.46309182, -3.1463003,19.57244,0.14982383, 9.507003,13.715691,5.5162406, -5.202973,-6.1291566,-5.6660647, 3.214402,15.241169,0.14982383, 3.5957718,12.53072,-1.4982382, 9.656827,17.815414,-0.3405087, -0.50395286,13.252599,3.718355, 3.445948,-1.8387469,0.23154591, -4.5628166,-3.486809,-4.440233, 0.040861044,0.3405087,4.0180025, 2.9556155,8.62168,-2.8330324, 2.5333846,13.102775,-0.14982383, 5.6660647,6.3607025,1.7978859, 5.5571017,-2.2609777,-0.10896278, 5.8567495,3.718355,-3.636633},
                                       {6.973618,17.24336,3.0645783, -0.9125633,-1.1849703,2.2201166, -1.0351465,-3.0237172,-3.336985, 5.09401,15.173067,-0.6946377, 2.982856,12.14935,0.10896278, 6.0201936,5.053149,1.879608, 7.3141265,6.782933,-2.1792557, 6.742072,19.19107,0.23154591, 6.1291566,6.0882955,-1.0351465, -5.706926,-7.5456724,-9.152874, 11.032481,13.443283,-4.4810944, 11.182305,18.578154,-2.1792557, 0.14982383,13.211738,2.9147544, 5.706926,-0.10896278,0.42223078, 5.175732,17.079916,-2.4925237, 1.4573772,19.57244,-0.5720546, 5.5571017,16.208214,-1.9885708, 7.3958488,14.137921,-0.10896278, 3.1054392,11.141444,0.5720546, 6.973618,3.990762,0.8036005, 0,-0.29964766,-0.9942854, -0.7218784,19.340895,-2.5333846, 12.871228,11.795221,7.5865335, -2.7921712,-7.273266,-4.5900574, 0.6946377,12.299174,7.5865335, 2.7921712,8.962189,-1.920469, 4.5628166,12.639683,0.313268, 6.5922484,5.829509,1.9885708, 5.175732,6.851035,-2.8738933, 4.944186,19.531578,-0.23154591},
                                       {11.836082,12.299174,7.1234417, -2.8330324,-5.407278,-0.6946377, -5.175732,-3.2961242,-5.8976107, 8.117727,14.628253,2.3018389, 2.8738933,11.876944,4.3312707, 2.3426998,-2.4925237,-0.38136974, -4.5219555,19.531578,-2.982856, 10.691973,13.143636,6.5513873, -2.7921712,-6.510526,-2.9556155, 2.3018389,14.206022,8.771504, 1.7297841,12.367276,-4.2086873, 12.489859,16.358038,-0.29964766, 2.982856,11.836082,4.671779, 2.8330324,-2.6832085,-1.6480621, -3.405087,19.57244,0.14982383, 11.604536,8.962189,4.0180025, -4.099725,-7.6954966,-3.9771416, 8.390134,16.970953,0.3405087, 5.47538,15.091345,-3.336985, 2.4108016,10.038197,1.7570249, 6.1700177,0.88532263,0.10896278, 8.730643,14.369467,-3.568531, -1.2666923,19.57244,1.2666923, 0.8036005,2.4108016,5.706926, -1.4573772,2.1111538,-5.7886477, 12.4489975,16.249075,-0.7627395, 4.3312707,12.830367,5.053149, 2.1111538,-3.255263,0.313268, 1.5390993,19.231932,-0.5720546, 14.982383,11.114203,5.6660647},
                                       {-2.070293,-6.932757,-3.7864566, 1.0760075,11.141444,9.697687, 5.434519,8.430995,-5.9793324, 1.4573772,12.367276,1.3075534, 6.973618,4.140586,2.2201166, 4.6036777,-1.334794,0.42223078, 3.759216,19.57244,-1.1849703, -2.5606253,-2.3426998,-1.6480621, 1.7570249,3.718355,-4.0588636, 4.4810944,13.021052,1.1441092, 3.336985,11.304889,0.5720546, 6.932757,3.405087,0.313268, 7.246025,11.645397,-2.6014864, 10.56939,17.270601,3.173541, -5.6660647,-7.8861814,-8.117727, 3.173541,17.352324,0.313268, 9.615966,14.7916975,-3.8681788, 1.879608,12.367276,3.445948, 6.510526,0.08172209,0.50395286, 8.430995,15.4046135,-3.568531, -0.6946377,1.1849703,5.8567495, -0.95342433,2.152015,-2.1383946, 7.205164,12.4489975,-0.53119355, 3.2961242,11.645397,0.313268, 7.0553403,4.2086873,1.920469, 1.9477097,4.2904096,-4.140586, 3.0237172,19.57244,1.1849703, 6.1291566,3.255263,-0.95342433, -3.2961242,-5.09401,-3.0237172, 1.6889231,3.1463003,5.938472},
                                       {1.0760075,4.903325,-8.880466, 5.053149,13.593107,0.14982383, 6.742072,4.903325,3.405087, 3.718355,4.399372,-3.9090397, 3.1054392,19.57244,-0.3405087, 10.038197,13.102775,7.504812, 3.8273177,10.95076,3.7864566, -4.5628166,3.445948,-5.325556, 12.598822,17.270601,-3.7864566, 0.040861044,16.126492,3.3778462, 6.851035,-1.6889231,-0.08172209, 0.14982383,19.57244,-0.9942854, 11.182305,17.120777,3.759216, 13.633968,12.299174,6.0201936, -6.4015636,-2.5333846,-0.08172209, 8.19945,14.2877445,0.46309182, 9.00305,13.525005,-1.9477097, 10.147159,16.208214,0.7627395, 3.445948,11.372991,4.2086873, -0.23154591,-0.10896278,-0.9942854, -0.7218784,19.57244,-0.95342433, 7.014479,18.428331,1.607201, 9.507003,17.052675,-0.46309182, -3.9499009,-2.5333846,-5.09401, 12.14935,16.208214,1.0760075, 2.7240696,10.882658,4.6036777, 2.4925237,-0.84446156,1.3075534, 10.310603,15.636159,7.0553403, -4.140586,0,-6.3607025, 8.730643,18.305748,1.4573772},
                                       {6.701211,15.704261,-1.9885708, 8.580819,14.669114,0.6946377, 4.2495484,8.19945,4.2904096, 1.4573772,-0.08172209,-2.070293, 0.27240697,19.57244,1.0760075, 10.337844,16.821129,3.445948, -2.070293,0.14982383,2.5606253, 4.862464,4.440233,1.334794, 17.66559,17.583868,-2.6014864, 2.0294318,14.982383,4.440233, 4.671779,-2.6423476,-0.14982383, -5.134871,-10.419566,-9.152874, -1.4165162,3.718355,8.049625, -1.8387469,2.152015,-6.3607025, 7.014479,15.023244,3.405087, 5.134871,8.049625,3.6774938, -0.8036005,0.84446156,-1.2258313, -5.134871,19.57244,-1.1441092, 7.7363577,17.120777,1.6480621, -0.29964766,0.53119355,5.09401, 3.759216,2.152015,-8.117727, 8.499097,15.173067,-1.920469, 1.1441092,13.252599,1.9477097, 8.471856,-0.040861044,-0.0, 3.1463003,19.57244,-2.9556155, 14.818938,11.536434,7.014479, -5.7477865,-3.6774938,-2.3699405, 6.3607025,16.739407,3.2961242, 7.9270425,16.821129,-4.099725, 1.1441092,12.367276,2.152015},
                                       {7.3549876,0.6537767,0.313268, 11.985906,14.206022,-5.202973, -1.56634,19.57244,1.4982382, 9.507003,14.369467,-1.334794, 10.882658,18.0061,-2.5606253, 7.4639506,14.328606,1.2666923, 4.7126403,6.891896,3.445948, 1.4573772,1.1849703,-3.8681788, 12.639683,10.56939,6.932757, -5.7886477,0.92618364,-0.19068487, -0.23154591,12.639683,1.1168685, 4.440233,4.2086873,-4.862464, 10.079058,15.935807,2.152015, 4.399372,8.076866,3.1463003, 8.349273,0.5720546,1.2258313, 10.079058,10.651112,-2.6832085, -5.202973,19.57244,1.7297841, -1.3075534,0.14982383,4.862464, 0.23154591,5.325556,-1.6480621, 12.176591,15.976667,0.53119355, 3.990762,10.038197,3.8681788, 1.0351465,-0.23154591,0.61291564, -7.6273947,-1.9885708,-3.7864566, 7.246025,8.281172,-4.1814466, -0.08172209,5.938472,-4.903325, 6.851035,13.633968,1.3075534, 4.7126403,6.4015636,4.2086873, 2.6014864,3.2961242,-4.4810944, -0.27240697,19.57244,-0.19068487, 1.7297841,10.760075,5.09401},
                                       {4.6036777,7.3958488,-4.2086873, 10.991621,17.311462,-2.3699405, 0.88532263,12.9529505,4.2495484, 4.671779,5.8567495,3.336985, 3.405087,2.0294318,-4.140586, 2.3426998,19.57244,-3.1054392, 12.299174,7.9679036,-0.0, -4.7535014,-8.240311,-7.5865335, 0.53119355,13.6748295,4.1814466, 2.070293,2.152015,-5.8976107, 10.841797,17.011814,1.4982382, 7.43671,1.3075534,1.2258313, -3.0645783,-5.175732,-2.4925237, -1.3756552,0.27240697,3.214402, 1.0760075,-0.5720546,-3.214402, 11.985906,17.692831,-0.38136974, 3.173541,13.443283,3.5957718, 5.053149,-1.0760075,-0.0, 12.067628,13.865514,-4.440233, -3.636633,19.57244,0.6946377, 13.593107,14.410328,8.19945, 1.607201,1.879608,5.284695, 4.5219555,4.440233,-6.701211, 9.697687,16.04477,-2.070293, 0.10896278,12.680544,2.4516625, 7.0553403,1.4165162,0.84446156, 6.469665,19.422615,1.334794, -4.862464,-0.29964766,-2.8330324, 11.032481,14.328606,2.4925237, 4.903325,6.238119,-2.6423476},
                                       {8.390134,15.935807,2.6014864, 0.313268,12.53072,2.8330324, 7.5456724,-1.4573772,-0.040861044, 9.384419,17.24336,-4.7535014, -0.040861044,19.57244,0.84446156, -3.1463003,-7.1234417,-4.3312707, 2.4925237,7.8861814,6.469665, 1.920469,6.5922484,-9.697687, 3.5276701,13.715691,1.0351465, 5.012288,5.6252036,4.5628166, 5.134871,3.718355,-4.0588636, -5.597963,-6.2108784,-8.308413, 9.915613,14.709975,-3.0645783, 10.501288,17.62473,-1.879608, 2.6014864,11.141444,1.920469, 7.246025,1.607201,0.53119355, 11.304889,14.206022,-5.5162406, 10.95076,15.5135765,4.0588636, -3.1463003,-4.0588636,-3.5957718, -3.759216,-0.7627395,2.6423476, 0.9942854,1.4573772,4.903325, 16.507862,18.46919,0.10896278, 1.6889231,11.536434,0.3405087, 5.8976107,5.8976107,3.0645783, 4.671779,4.2495484,-3.718355, 5.9793324,19.531578,2.8330324, 14.137921,11.75436,7.205164, -2.3426998,-4.3312707,-2.6423476, -1.1441092,2.0294318,4.5219555, 0.50395286,1.7297841,-7.3958488},
                                       {3.173541,14.601013,0.53119355, 6.469665,9.193735,4.0588636, 2.8738933,-1.8387469,-3.214402, 8.730643,13.6748295,-5.134871, 1.2258313,19.57244,-1.7978859, 12.067628,8.853226,1.9885708, -4.372132,-5.6252036,-3.3642259, -6.782933,-7.3958488,-6.469665, -0.61291564,1.56634,4.671779, 9.043911,16.208214,0.10896278, 9.343558,16.08563,-0.53119355, 1.607201,11.727119,2.3018389, 8.240311,0.8036005,0.84446156, -4.5900574,19.57244,-4.372132, -5.47538,-8.539958,-5.134871, 7.5865335,18.46919,2.7240696, 5.5162406,13.824653,-0.27240697, 6.3198414,16.739407,1.7978859, 3.5276701,11.75436,3.718355, 2.6014864,0.313268,-1.9885708, -0.9942854,19.57244,-2.982856, 8.471856,4.862464,-1.525479, -7.6954966,-7.246025,-8.580819, 6.742072,14.669114,-1.525479, 2.982856,3.2961242,-4.671779, 5.434519,17.883516,2.4516625, 4.140586,9.343558,3.759216, 3.718355,-0.5720546,-1.7570249, 0.10896278,19.57244,-2.8330324, 12.026767,8.471856,1.9477097},
                                       {-4.2495484,-9.112013,-4.1814466, 6.3607025,18.46919,3.336985, 5.6252036,13.865514,-0.7627395, 2.0294318,11.985906,0.5720546, 5.706926,2.2201166,0.42223078, 2.3699405,17.270601,-3.8681788, 10.61025,15.431854,5.434519, -2.1383946,-2.982856,-0.88532263, 0.08172209,-0.19068487,2.6014864, 7.4639506,-0.53119355,-2.4516625, 8.076866,17.270601,-1.1849703, 1.2666923,12.026767,3.759216, 4.7535014,-1.3075534,-0.84446156, -6.6331096,19.57244,-3.214402, -2.1792557,-0.27240697,1.920469, 4.440233,1.9477097,-4.5900574, 7.4639506,16.86199,-1.4165162, 1.9477097,11.75436,2.982856, 7.6954966,-0.88532263,-1.7978859, 10.501288,8.349273,-5.366417, 8.662541,18.578154,-3.6774938, 6.238119,1.9885708,-0.6946377, -4.1814466,-7.5456724,-6.469665, -0.08172209,-0.88532263,0.10896278, 10.119919,15.976667,-2.1383946, 6.891896,12.53072,1.9885708, 3.759216,-2.0294318,-0.040861044, -6.66035,19.57244,-5.366417, -7.6546354,-8.049625,-7.082581, 8.117727,16.930092,2.4108016},
                                       {2.6014864,13.565866,2.5333846, 5.134871,3.0237172,0.53119355, 2.9147544,8.853226,-2.9556155, 9.043911,17.883516,1.0351465, 2.5333846,0.46309182,1.920469, -3.445948,1.0351465,-0.08172209, 0,10.651112,2.152015, 4.8216033,6.6331096,4.140586, 4.9850473,0.27240697,-4.9850473, -3.486809,-7.3141265,-8.730643, 4.8216033,16.04477,-4.440233, 1.6480621,10.56939,-2.1383946, 15.050485,17.856276,0.23154591, 1.879608,11.876944,3.445948, 2.6423476,-1.879608,0.61291564, -3.5957718,19.57244,-1.1849703, 8.921328,17.66559,0.6537767, 10.460427,11.75436,4.0588636, 4.6036777,16.657684,-5.6252036, 3.990762,11.75436,0.313268, 3.0237172,12.217452,1.0760075, 6.2789803,4.440233,1.1168685, 3.8273177,-3.2961242,-0.23154591, -1.920469,19.504337,-3.336985, 11.563675,12.598822,7.3549876, -2.7513103,-6.2789803,-1.1849703, 2.7649305,9.615966,8.580819, 3.405087,7.1234417,-7.8861814, 2.6014864,12.217452,1.7570249, 5.7886477,4.3312707,1.4982382},
                                       {7.4639506,10.337844,-3.214402, 7.668256,18.305748,1.7978859, 13.021052,12.598822,7.668256, 9.193735,17.583868,-0.0, 6.510526,16.249075,-1.9477097, 0.5720546,9.384419,2.3018389, 4.1814466,3.718355,0.7218784, 9.275456,9.507003,-3.0237172, 7.1234417,18.305748,1.0351465, 3.990762,0.95342433,-1.9477097, -7.04172,-5.47538,-7.8180795, 4.9850473,4.372132,4.2495484, 2.4925237,5.5571017,-8.62168, 4.0180025,12.9529505,1.4982382, 6.5513873,5.5571017,2.9147544, 7.246025,6.8237944,-4.140586, 5.9793324,19.422615,-0.5720546, 4.372132,4.399372,2.1111538, 7.5456724,16.657684,-0.38136974, 3.2961242,10.460427,2.2609777, 4.7535014,-0.61291564,0.61291564, -4.099725,19.57244,-1.334794, 7.273266,17.66559,2.3426998, -3.636633,-6.469665,-2.3426998, 2.4108016,9.343558,8.049625, 2.7240696,7.3549876,-5.938472, 11.182305,16.548723,-0.19068487, 3.1463003,10.378705,3.214402, 5.6660647,-0.53119355,1.4573772, 7.1234417,2.6423476,-4.903325},
                                       {1.4982382,19.313654,-4.1814466, 4.944186,19.231932,0.08172209, -2.7921712,-2.070293,-3.8681788, 2.982856,12.340035,5.243834, 11.795221,17.434046,-0.9125633, 7.5865335,13.33432,1.2666923, 3.8681788,12.340035,4.099725, 1.3756552,-2.1792557,0.92618364, -0.08172209,19.57244,-4.0588636, 11.563675,12.258313,5.829509, -0.08172209,-0.040861044,-0.95342433, -3.6774938,-4.0180025,-7.6546354, 5.5162406,6.742072,3.8681788, 12.067628,16.507862,1.6480621, 2.3699405,10.419566,4.903325, 2.7240696,-2.3426998,-0.0, -4.5628166,19.57244,0.38136974, 12.571581,11.645397,6.469665, -3.5276701,-7.8589406,-2.1792557, 7.3958488,17.052675,3.8681788, 8.730643,15.132206,-0.95342433, 1.4573772,11.372991,0.46309182, 6.701211,1.334794,-0.29964766, 2.070293,16.821129,-4.372132, 1.9885708,19.57244,-2.070293, 12.367276,9.302697,2.070293, -3.0645783,-5.366417,-1.2666923, 0.95342433,3.718355,7.3141265, 5.366417,5.829509,-6.5513873, 3.0237172,13.865514,0.08172209},
                                       {6.238119,6.932757,3.8273177, 3.7864566,-0.61291564,0.23154591, 8.730643,7.9270425,-4.2086873, -1.2258313,-2.6423476,-0.6537767, -4.0180025,-8.049625,-3.759216, 7.5865335,17.502148,0.88532263, 2.6423476,1.7978859,-3.568531, 8.853226,14.601013,0.6946377, 3.5276701,8.430995,4.7943625, 11.876944,6.6331096,-5.053149, -1.2666923,-1.879608,-1.525479, -0.53119355,-2.8330324,-2.982856, 5.597963,3.3778462,1.6480621, 12.14935,16.548723,-2.8330324, 1.920469,12.912089,0.27240697, 5.8567495,4.903325,2.5606253, 8.390134,8.580819,-3.5957718, -2.7921712,19.57244,-3.7864566, 13.375181,10.119919,5.5162406, -5.325556,-3.8681788,-4.372132, 2.5333846,14.410328,6.2789803, 12.299174,15.322891,-0.6946377, 1.9477097,10.269742,5.407278, 5.706926,4.630918,1.607201, 9.724928,13.33432,-5.47538, 9.956474,17.66559,-0.95342433, 0.84446156,-0.6946377,-1.3756552, -1.1441092,-0.95342433,-0.53119355, 4.5219555,3.990762,-7.8180795, 1.0760075,12.367276,0.38136974},
                                       {6.0201936,6.5922484,3.718355, 10.147159,10.337844,-5.7477865, 6.5922484,18.850561,-2.6014864, 11.34575,7.4639506,1.9477097, 5.407278,13.0619135,1.3075534, 4.1814466,4.2495484,-7.6546354, 3.2961242,11.032481,1.9477097, 2.3426998,8.390134,3.9499009, 5.175732,2.1792557,-4.0180025, 2.0294318,19.57244,-1.8387469, 12.489859,13.593107,3.6774938, -2.8330324,-3.1054392,-0.46309182, 0.7627395,0.92618364,3.486809, 1.7297841,5.325556,-7.246025, 3.0237172,14.056199,2.982856, 6.4424243,6.4424243,2.1111538, 7.4639506,9.425281,-4.0588636, 7.3549876,18.659876,-0.95342433, 12.217452,11.563675,6.66035, 0,11.958665,-3.1054392, 5.325556,14.206022,1.4165162, 4.862464,7.273266,1.920469, 2.9556155,-3.173541,0.5720546, 2.2201166,19.57244,-5.09401, 15.431854,11.645397,4.9850473, -2.3699405,-9.615966,-5.9793324, 2.2609777,14.246883,-2.4108016, 4.4810944,11.727119,-2.8738933, 1.8387469,14.709975,2.7240696, 5.053149,0.5720546,0.313268},
                                       {4.399372,18.237646,-5.175732, -4.5900574,-7.4639506,-8.430995, 7.246025,18.237646,1.3756552, 7.4639506,15.322891,0.14982383, 4.862464,6.2789803,1.5390993, 3.9499009,-2.5606253,1.2258313, 8.308413,16.126492,-0.7627395, -1.3756552,-6.782933,-4.5219555, 6.973618,16.317177,1.0351465, 4.903325,2.6423476,-4.7943625, 5.5162406,13.525005,0.313268, 3.990762,9.466142,4.4810944, 3.9499009,3.0645783,-1.9885708, 2.4925237,19.57244,1.3075534, 11.645397,12.639683,4.944186, 10.991621,7.3141265,-5.053149, 11.372991,16.780268,0.84446156, 0.84446156,10.528529,2.1792557, 6.0882955,3.0237172,0.313268, 8.158588,14.859799,-6.0201936, 10.800936,14.137921,2.5333846, -2.1383946,-4.1814466,1.4982382, -1.9477097,0.53119355,2.6014864, -1.1168685,2.6832085,-2.8330324, 7.014479,12.571581,1.5390993, 4.440233,8.499097,2.3426998, 3.9499009,4.099725,-5.134871, 4.903325,19.57244,1.9885708, 10.61025,8.894087,6.4424243, 5.9793324,14.560152,-0.14982383},
                                       {4.0588636,9.847511,-4.862464, 4.5628166,12.639683,1.2258313, 6.4424243,4.2495484,2.4925237, 3.718355,-0.08172209,0.9942854, 3.5957718,19.57244,0.84446156, 11.876944,11.536434,5.6660647, -4.4810944,0.8036005,0.88532263, 1.4982382,15.745122,2.070293, 5.6252036,10.378705,0.88532263, 2.5606253,11.727119,1.3756552, 4.0180025,6.851035,2.8330324, 12.108489,10.310603,-5.7477865, 8.308413,18.768839,-0.61291564, 13.443283,11.264028,7.3141265, 8.921328,17.052675,1.7978859, 1.4982382,11.032481,-3.5957718, 2.8330324,10.882658,1.3075534, 4.671779,6.932757,2.5333846, 2.6832085,0.50395286,-2.8330324, 1.6480621,19.57244,1.1441092, 9.534244,9.112013,0.14982383, -4.4810944,-6.0882955,-8.499097, 11.304889,16.3989,-2.7921712, 13.756551,17.270601,0.3405087, 2.3018389,10.228881,1.8387469, 6.0474343,1.3075534,0.88532263, 2.3426998,18.087822,-2.8330324, 7.668256,19.57244,0.6537767, -2.9556155,-6.0201936,0.50395286, -3.9771416,-4.903325,-8.240311},
                                       {8.539958,15.431854,-0.040861044, 1.56634,9.697687,3.5957718, 4.440233,-0.040861044,1.0760075, 9.888372,17.24336,2.4108016, 0,-3.214402,-7.3958488, 9.765789,11.563675,-2.7921712, 12.53072,17.924377,0.53119355, 2.1792557,12.980191,1.2258313, 5.5162406,8.158588,3.636633, 7.43671,3.5276701,-3.3642259, 5.6252036,19.57244,0.040861044, 10.882658,12.4489975,5.09401, -4.630918,-7.164303,-9.997335, 1.9885708,9.275456,-6.0882955, 4.8216033,11.645397,1.3075534, 4.2495484,6.66035,4.5628166, 3.568531,-0.19068487,-3.1463003, 0.8036005,19.57244,0.08172209, 9.425281,10.61025,3.445948, 0.08172209,-9.234595,-8.158588, -1.0351465,12.108489,2.3699405, 11.536434,12.721405,1.7297841, 7.8861814,15.554437,-1.6889231, 4.7126403,9.575105,4.2086873, 2.6832085,-1.6480621,0.313268, -4.3312707,19.57244,-2.6423476, 7.4639506,17.856276,-0.10896278, 7.7772183,14.2877445,-3.0237172, 7.273266,14.09706,1.920469, 4.2086873,8.921328,6.4015636},
                                       {3.9499009,0.08172209,-1.7570249, -1.0351465,19.57244,0.3405087, 10.691973,9.847511,4.2086873, -1.7297841,-6.1291566,-3.759216, 3.0645783,16.821129,-0.42223078, 7.082581,1.334794,-1.9885708, 7.3141265,14.560152,-1.3075534, 3.486809,10.528529,4.2495484, 3.405087,-0.9942854,-0.8036005, -6.782933,19.57244,-2.2609777, 8.62168,17.352324,-1.9885708, 3.8273177,0.38136974,-0.50395286, -2.070293,-4.2904096,-6.0882955, 6.510526,4.1814466,0.95342433, 7.3549876,14.47843,-0.50395286, 2.8738933,11.264028,4.140586, 3.718355,-0.040861044,-0.040861044, -5.7477865,19.57244,-4.2904096, 7.3958488,18.659876,-3.1463003, 2.4108016,-5.434519,-2.7513103, 2.6423476,16.780268,-0.50395286, 0.6946377,11.958665,0.14982383, 3.568531,8.049625,3.759216, 3.486809,4.7943625,1.7297841, 10.691973,13.988097,-5.7477865, 8.076866,15.745122,-0.5720546, -0.8036005,-4.0588636,0.23154591, -2.5333846,-0.8036005,0.6537767, 9.234595,4.862464,-0.53119355, 6.2108784,14.519291,-0.5720546},
                                       {4.440233,8.730643,5.8976107, 4.862464,2.8738933,-3.336985, 3.8273177,19.57244,-0.5720546, 13.988097,10.760075,5.2165933, 1.334794,10.269742,2.3018389, 5.7477865,6.973618,-2.1792557, 8.853226,17.434046,-2.8330324, 2.6423476,11.917805,3.5957718, 2.7649305,2.1111538,0.53119355, -1.1441092,19.041246,-4.1814466, 13.824653,10.882658,5.053149, -3.8681788,-5.8567495,1.334794, -2.0294318,-4.2904096,-3.568531, 7.9270425,10.991621,2.1111538, 8.539958,18.115063,0.14982383, 5.284695,9.765789,3.5957718, 3.445948,-1.2666923,0.23154591, 1.7570249,19.109348,-4.2904096, 6.0474343,19.463476,-0.5720546, -0.95342433,-6.973618,-3.0645783, 4.944186,15.472715,2.070293, -0.040861044,3.173541,-3.445948, 7.1234417,16.017529,1.5390993, 3.3778462,12.176591,1.4165162, 3.6774938,5.134871,1.9885708, 2.3018389,0.23154591,0.88532263, 9.915613,9.80665,-3.5276701, 3.1463003,19.57244,-0.6946377, 10.147159,14.601013,5.706926, 2.3018389,6.3607025,-1.2258313},
                                       {5.2165933,10.732834,2.6014864, 2.3018389,-0.38136974,-0.040861044, 5.012288,15.976667,-2.7513103, -2.7240696,-7.3549876,-6.0474343, 7.205164,16.970953,-1.9477097, 3.173541,15.554437,0.23154591, -0.14982383,10.841797,2.1792557, 4.944186,-0.14982383,0.50395286, 4.8216033,18.196785,-6.510526, 4.1814466,19.57244,-0.10896278, -2.1383946,5.6252036,4.6036777, 4.8216033,2.8738933,-6.428804, 5.47538,14.941522,2.3018389, 2.982856,8.240311,3.336985, 3.1054392,-0.8036005,-0.53119355, 9.00305,12.408136,6.932757, 0.10896278,-2.2609777,0.313268, -1.607201,-1.4982382,-1.4573772, 0.7218784,6.2108784,1.920469, 8.390134,16.126492,1.1849703, 2.7921712,12.067628,3.445948, 4.399372,-0.61291564,0.5720546, 4.903325,18.428331,-6.0882955, -4.099725,-3.7864566,-5.8567495, 6.6331096,10.56939,-2.982856, 8.471856,13.443283,-0.3405087, 5.325556,12.258313,5.284695, 3.2961242,-1.9477097,-1.9885708, -2.4925237,19.422615,-0.53119355, 10.882658,11.073342,5.8976107},
                                       {-1.2258313,-7.1234417,-6.1700177, 7.205164,17.62473,0.61291564, 5.09401,14.015338,-0.10896278, 5.325556,9.888372,1.0760075, 4.7943625,3.5957718,0.6537767, 12.53072,11.985906,-4.9850473, 9.193735,14.7916975,2.0294318, -2.070293,-3.5276701,1.1441092, -2.6014864,-1.6480621,0.14982383, 4.372132,7.3958488,2.5606253, 9.724928,17.120777,1.4165162, 2.2609777,11.073342,3.5276701, 3.2961242,-2.3699405,0.19068487, -0.6946377,19.531578,-5.8976107, 12.598822,12.340035,6.4424243, -0.14982383,-2.982856,-2.8738933, -2.4516625,-7.5865335,-2.7921712, -0.61291564,11.563675,9.575105, 6.4015636,10.378705,-0.53119355, 4.440233,11.141444,1.334794, 4.4810944,5.5162406,2.2201166, 11.75436,7.7772183,-3.9771416, 8.771504,16.249075,1.334794, -1.8387469,-2.1383946,-0.95342433, -1.7978859,-1.4165162,-1.6889231, -2.1792557,4.6036777,4.4810944, 8.499097,15.826844,1.2666923, 1.7570249,11.413852,4.2086873, 5.012288,-1.334794,-1.2666923, -5.706926,19.57244,-1.9477097},
                                       {13.797412,13.102775,5.6660647, -1.8387469,-7.014479,-3.5957718, 0.92618364,7.5456724,7.3141265, 4.5219555,7.205164,-6.0882955, 5.325556,11.454713,0.9942854, 4.372132,6.1291566,3.759216, 8.349273,6.1291566,-3.759216, 8.19945,17.883516,0.5720546, 2.5333846,0.53119355,-2.0294318, -3.9499009,-5.175732,-8.308413, 7.668256,10.732834,-0.0, 10.501288,16.698545,1.8387469, 3.405087,10.800936,4.140586, 4.1814466,-2.070293,0.040861044, 13.484144,11.604536,8.117727, -3.9499009,-5.6252036,1.0760075, -3.336985,-6.0882955,-6.1700177, -1.920469,6.5513873,6.3198414, 8.812365,15.4046135,2.4516625, 3.568531,10.651112,2.3699405, 3.9499009,1.5390993,0.3405087, 2.2609777,19.109348,-4.8216033, 12.217452,12.680544,5.8976107, -3.336985,-4.862464,1.4982382, -2.1792557,4.1814466,5.6252036, 1.8387469,4.671779,-6.2108784, 4.2495484,14.669114,2.2609777, 5.053149,8.19945,4.903325, 3.255263,-0.6946377,-1.6480621, 1.879608,19.57244,1.1849703},
                                       {8.281172,11.958665,2.3426998, 0.53119355,-3.1054392,-6.0474343, -1.1441092,-0.8036005,1.5390993, 6.0201936,7.205164,-4.7535014, 6.2789803,15.132206,1.334794, 2.3699405,9.956474,2.8330324, 4.944186,7.8589406,4.630918, 2.2201166,0.040861044,-2.070293, -0.040861044,19.57244,-0.08172209, 10.419566,16.249075,2.9556155, -0.95342433,0.6537767,-1.920469, -1.7297841,-6.469665,-0.6537767, 4.5219555,10.691973,11.304889, -1.0351465,-4.372132,-1.3075534, 7.082581,15.241169,2.6014864, 4.671779,8.730643,3.7864566, 1.7978859,-0.9942854,-1.1441092, -0.7627395,19.57244,-0.6537767, 12.067628,11.985906,7.014479, -3.759216,-7.164303,-3.6774938, 2.070293,12.108489,10.419566, 6.782933,14.750836,1.7978859, 3.759216,10.528529,1.1168685, 7.164303,3.1463003,1.9885708, 11.413852,10.038197,-3.405087, 9.043911,17.66559,2.0294318, 12.912089,13.102775,7.164303, -1.7570249,-6.0201936,1.2258313, -1.879608,0.7627395,2.2201166, 3.636633,4.5628166,-7.8180795},
                                       {6.238119,14.941522,1.6889231, 3.5276701,8.049625,3.9499009, 2.5606253,-0.7218784,-2.070293, -0.42223078,19.57244,-4.5628166, 7.3549876,19.504337,0.88532263, 4.4810944,4.5219555,0.50395286, -0.95342433,-7.3141265,-8.539958, 5.407278,17.62473,-0.5720546, 2.5333846,4.6036777,-7.04172, 7.668256,14.328606,0.42223078, 2.3699405,12.762266,2.5606253, 3.0645783,8.499097,3.2961242, 4.140586,4.7535014,-0.84446156, -3.486809,-6.4015636,-6.2789803, 9.697687,16.930092,0.46309182, 7.7363577,16.739407,-3.214402, 5.829509,14.410328,1.7297841, 4.7126403,9.697687,5.243834, 2.070293,19.57244,-0.040861044, 8.281172,8.853226,0.14982383, -3.255263,-3.1463003,-0.7218784, -4.1814466,-7.1234417,-4.372132, 6.973618,18.305748,2.7649305, 7.504812,13.443283,-2.3018389, 2.9556155,10.800936,0.19068487, 6.238119,1.1849703,-4.2495484, 4.3312707,19.57244,-2.3018389, 9.043911,7.3958488,1.4165162, -2.3426998,-6.66035,-3.5957718, 5.434519,18.700737,2.9556155},
                                       {5.325556,14.2877445,-1.879608, 1.5390993,10.079058,-0.38136974, 5.6252036,4.903325,2.2201166, 10.119919,8.771504,-1.56634, 6.891896,18.959524,-1.2666923, 9.997335,12.258313,7.1234417, 3.568531,0.84446156,-0.61291564, -0.14982383,15.785983,5.6252036, 5.5571017,14.328606,0.38136974, 3.214402,10.310603,0.10896278, 6.0474343,2.7240696,-0.08172209, 0.61291564,17.270601,-3.9499009, 8.771504,13.633968,0.42223078, -0.6537767,-5.243834,1.3756552, -1.6480621,1.879608,2.982856, 4.372132,5.053149,-4.903325, 4.8216033,13.33432,0.92618364, 1.920469,8.240311,3.759216, 2.7649305,-0.8036005,0.14982383, -6.0882955,19.57244,-2.6832085, 5.706926,18.196785,-2.1111538, -1.4573772,-3.9771416,-4.7126403, 4.6036777,4.1814466,-2.2201166, 6.469665,14.9006605,2.7649305, -1.0760075,10.61025,3.486809, 5.938472,1.1168685,0.313268, -2.3699405,19.381754,-5.012288, 11.264028,11.836082,3.173541, -3.6774938,-4.1814466,0.92618364, 2.7240696,3.2961242,5.284695},

                                       //// Walking

                                       {-1.08,6.21,-0.29964766, -0.46,7.97,1.1441092, -0.38,10.08,2.8330324, 1.27,9.96,1.0760075, 0.31,13.06,1.6480621, -1.27,12.57,2.8738933, 1.88,10.88,-1.607201, -5.56,16.25,-1.525479, -3.79,12.91,2.9147544, 4.56,9.38,2.0294318, -1.14,4.75,-0.61291564, -1.88,2.49,0.10896278, -2.34,3.38,1.1849703, -3.34,9.85,5.09401, -0.42,15.43,13.443283, -0.95,9,5.6252036, -4.79,15.21,0.92618364, -1.46,2.6,-2.0294318, 1.5,13.21,1.9885708, -1.65,6.89,1.9885708, -0.5,7.59,0.38136974, -0.89,7.7,1.2258313, -0.61,9.58,1.56634, 0.34,10.46,0.84446156, 1.38,13.18,1.6889231, 0.08,14.71,1.7297841, 0.8,11.92,-1.1168685, -6.66,13.63,-1.2258313, -4.06,12.45,2.9147544, 3.21,9.08,2.4108016},
                                       {0.08,3.57,-0.27240697, -1.84,2.79,0.7627395, -2.14,3.95,2.3699405, -2.87,9.34,5.284695, -1.92,14.79,12.571581, -0.99,7.74,4.399372, -6.4,16.97,1.6889231, 0.31,3.91,-2.1383946, 0.04,10.69,1.5390993, -1.69,8.5,2.5333846, -0.69,7.27,0.27240697, -0.11,7.97,1.9885708, 0.95,9.15,1.9885708, 0.08,9.62,1.1168685, -0.15,12.87,1.4982382, -0.61,13.4,2.3699405, 0.93,11.03,0.88532263, -1.5,11.84,-1.2666923, -4.52,14.52,2.3426998, 1.31,11.73,3.214402, 1.04,5.05,0.9942854, -1.31,3.11,-0.27240697, -2.41,3.49,1.3756552, -4.52,6.09,2.5606253, -1.76,14.82,10.691973, 0.46,10.69,8.962189, -4.14,16.63,0.27240697, -3.68,3.11,1.2258313, 1.95,6.78,-1.7978859, -0.3,11.92,3.2961242},
                                       {-1.46,6.7,1.2666923, -0.27,7.82,0.9942854, -0.15,8.69,0.7627395, -0.23,9.58,1.7297841, 1.38,12.18,1.2666923, -0.19,13.59,1.9885708, 0.76,13.1,0.040861044, -4.9,13.14,-1.6480621, -4.9,14.6,1.6889231, 1.12,10.15,2.9147544, 1.69,4.1,-0.29964766, -1.76,2.53,0.3405087, -2.49,4.02,1.7978859, -3.45,8.16,4.372132, -2.03,14.75,12.789507, 0.57,7.97,5.6252036, -4.71,11.54,1.0351465, -3.34,11.54,0.88532263, 2.18,6.82,-0.6946377, -1.23,10.42,1.7570249, -1.61,6.74,-0.46309182, -0.08,7.97,1.1849703, 0.61,10.08,2.7240696, 0.8,10.19,1.0760075, 0.08,12.79,1.5390993, -0.11,14.29,1.6889231, 0.57,11.8,-1.1168685, -6.59,13.53,-0.6537767, -2.56,11.73,2.7240696, 3.38,9.3,2.4925237},
                                       {-0.53,3.76,0.3405087, -1.8,3.3,1.2666923, -2.03,9,4.6036777, -3.41,9,4.6036777, -0.46,12.37,10.310603, -4.44,16.32,1.1168685, -3.87,2.96,1.3756552, 2.6,9.08,-2.8330324, -1.38,8.08,3.255263, -1.33,7.44,1.334794, -0.23,8.54,1.0351465, -0.27,8.54,1.2666923, -0.5,9.81,1.607201, 0.5,11.22,0.95342433, -0.27,13.02,1.56634, 0.84,14.25,1.4982382, 0.31,11.03,-1.6889231, -7.86,13.8,0.10896278, -2.6,11.22,2.5606253, 3.57,8.43,2.3426998, -0.65,3.64,0.5720546, -2.14,3.34,0.95342433, -2.53,4.99,2.6832085, -3.41,10.34,7.246025, 0,13.18,11.495573, -2.49,10.69,3.2961242, -5.6,12.79,1.6889231, 0.5,4.1,-2.6832085, 0.23,12.11,2.2609777, -1.38,7.55,1.8387469},
                                       {-0.38,7.74,0.42223078, -0.72,8.47,1.2258313, -0.15,9.89,2.9147544, 0.38,10.19,0.3405087, 0.11,13.1,1.7570249, -0.19,13.87,2.1111538, 0.57,11.26,-1.879608, -6.85,15.05,0.27240697, -3.49,11.35,2.4108016, 3.95,7.78,2.1111538, -0.61,3.57,0.23154591, -1.84,2.98,0.9942854, -2.41,4.63,2.7649305, -3.95,11.3,7.3549876, 0.15,13.53,12.067628, -2.79,9.08,2.3699405, -5.82,14.06,1.879608, 0.95,5.05,-2.4516625, 0.38,11.56,2.152015, -2.3,6.93,1.7297841, -0.5,7.78,0.46309182, -0.19,7.97,1.56634, 0.23,9.92,2.7240696, 0.42,11.03,0.6537767, 0.08,13.87,2.1111538, -0.19,13.95,2.7921712, 0.57,10.31,-0.8036005, -4.75,14.21,-0.9125633, -3.41,11.92,2.4925237, 2.87,8.16,2.5606253},
                                       {0.04,3.91,0.08172209, -1.76,2.96,0.313268, -2.91,4.67,2.1111538, -3.95,10.04,5.8567495, 0.84,14.18,13.484144, -1.95,9.81,2.7921712, -6.63,15.17,1.8387469, 1.04,3.72,-2.8330324, 0,11.75,2.2609777, -2.49,7.12,1.7978859, -0.3,7.21,0.10896278, -0.34,8.05,0.3405087, -0.69,10.53,3.214402, 1.31,10.76,0.7627395, -0.15,13.44,1.3075534, -0.15,14.82,1.7297841, -1.57,11.65,-1.6480621, -6.66,14.25,0.313268, -2.34,10.5,2.2201166, 2.91,7.46,1.4165162, -0.8,2.49,-0.040861044, -2.18,2.87,1.0351465, -2.37,4.82,2.9556155, -3.06,12.98,9.384419, -0.23,12.49,10.691973, -3.17,9.53,2.4108016, -5.63,13.82,1.6889231, 2.72,5.79,-2.4516625, -0.76,10.92,2.4108016, -2.56,6.7,1.7297841},
                                       {-0.04,8.01,0.61291564, -0.11,7.4,0.84446156, -0.57,9.62,2.6832085, 0.69,11.84,0.6946377, -0.99,13.02,2.4108016, 0.95,13.4,2.1111538, 0.72,11.75,-1.8387469, -6.85,15.64,1.2666923, -1.99,10.99,2.5333846, 3.34,7.67,1.1849703, -1.57,3.06,-0.8036005, -2.03,2.03,0.6946377, -2.75,5.24,2.5606253, -2.96,14.56,11.645397, -0.61,8.73,7.4639506, -6.02,17.5,-0.08172209, -0.76,1.69,-1.9477097, 1.12,13.57,2.4108016, -1.76,6.7,1.7978859, -1.18,6.36,0.08172209, -0.72,7.78,0.92618364, -0.27,10,2.7649305, 0.61,10.23,0.95342433, 1.65,13.48,1.2258313, -0.38,14.9,2.3426998, 0.53,11.75,-0.38136974, -5.48,13.18,-2.0294318, 3.15,7.93,2.3426998, 0.15,3.17,-0.38136974, -1.76,1.76,0.10896278},
                                       {-2.79,4.79,2.9147544, -2.98,11.26,8.008764, -1.12,14.37,12.026767, -3.17,11.07,3.5276701, -6.4,11.37,1.4573772, 2.3,5.67,-2.7240696, 0.99,12.22,2.8738933, -2.64,5.6,1.0351465, -0.76,7.82,0.23154591, -0.8,7.63,0.313268, -0.46,10.92,3.214402, 1.04,10.88,1.2258313, 0.69,13.87,2.0294318, 0.76,13.76,1.7297841, -2.11,11.99,-1.7297841, -6.74,15.98,0.7627395, -1.33,10.92,2.7921712, 2.68,5.52,0.50395286, -0.46,1.61,-0.7218784, -2.03,2.49,1.1168685, -3.36,5.71,2.2201166, -3.15,16.44,12.598822, -1.27,8.66,8.730643, -4.67,14.82,-0.61291564, -2.98,5.9,1.1168685, 1.08,9.08,-2.1792557, -0.57,9.89,1.8387469, -1.61,5.56,-0.42223078, -0.27,8.43,0.61291564, -0.57,10.99,4.099725},
                                       {1.08,9.04,0.42223078, 2.15,13.99,1.7978859, -0.53,14.06,3.173541, 0.84,10.65,-0.08172209, -4.82,14.6,-2.5606253, -5.09,13.57,2.9147544, 2.64,9.28,1.920469, -0.3,3.91,-0.38136974, -1.88,1.73,-0.29964766, -2.26,2.72,1.2258313, -3.11,9.04,4.862464, -0.95,17.67,15.28203, -3.02,7.44,3.5957718, -5.79,14.82,1.5390993, 0.08,4.4,-3.6774938, 0.65,12.49,2.8330324, -2.53,6.09,1.1168685, -0.27,7.44,-0.10896278, -0.08,7.89,1.0760075, -0.38,10.38,3.0237172, 0.5,9.89,0.9942854, 0.57,14.02,1.7978859, 0.31,14.82,1.9477097, -0.38,11.56,-1.1441092, -6.74,15.51,-0.42223078, -2.11,11.65,2.6423476, 2.68,7.01,1.334794, -0.89,2.79,-0.5720546, -1.65,2.45,0.53119355, -2.68,4.75,2.070293},
                                       {-4.21,13.57,9.724928, 0.08,11.22,10.501288, -3.79,12.49,2.3426998, -4.44,10.5,0.84446156, 1.73,5.94,-2.1792557, 0.04,11.14,2.5333846, -1.95,6.55,1.607201, -0.76,7.27,1.2666923, 0.11,7.82,0.10896278, -1.38,9.58,2.3018389, 1.38,12.3,1.4573772, 1.38,14.56,1.4573772, 0,14.82,0.6537767, -7.4,12.98,-1.607201, -4.67,13.14,1.9477097, 1.69,10.34,2.2609777, 1.5,3.76,-0.23154591, -1.08,1.42,0.08172209, -1.53,3.99,2.3426998, -2.83,7.31,4.0588636, -3.3,17.62,14.369467, -1.57,6.47,6.1291566, -5.52,16.13,-0.95342433, -1.84,4.21,-0.5720546, 0.76,12.18,2.152015, -1.65,7.44,0.88532263, -0.99,6.44,0.84446156, -0.08,7.16,1.0760075, -0.8,9.11,1.9885708, 0.89,11.03,1.4165162},
                                       {1.46,13.4,1.879608, 0.84,15.24,2.4108016, -0.23,11.96,-0.29964766, -6.7,13.72,-1.334794, -3.91,13.25,2.4516625, 3.11,9.04,2.2609777, -0.04,2.79,-0.7627395, -1.38,2.11,0.53119355, -2.03,4.14,1.9885708, -3.72,10.27,6.5922484, -1.38,14.79,13.021052, -2.72,8.81,2.9147544, -6.59,15.6,1.0760075, 2.22,4.56,-3.0237172, -0.53,10.76,2.4925237, -2.18,7.08,1.7297841, -0.72,7.44,0.50395286, -0.15,7.78,0.50395286, -1.18,10.31,3.5276701, 1.08,10.88,1.2258313, 1.12,13.48,2.3018389, -0.11,13.59,1.9477097, -1.5,11.22,-1.879608, -1.88,11.54,2.4516625, 4.1,5.71,1.1441092, -0.5,2.26,-0.9125633, -2.14,2.34,1.0351465, -3.49,5.71,2.6832085, -4.63,16.32,11.495573, -0.19,8.39,8.812365},
                                       {-2.37,9.77,1.2258313, -7.08,15.13,1.7978859, 2.34,4.56,-2.8330324, -0.34,11.11,1.6480621, -3.06,6.97,1.2258313, -0.19,7.86,0.08172209, -0.23,9.08,1.334794, 1.04,9.72,2.6423476, 2.15,12.07,1.3075534, -2.26,13.53,1.6480621, 0.42,13.57,1.1441092, -4.82,13.02,-2.2201166, -5.43,14.75,1.9885708, 1.23,10.19,2.7649305, 1.08,4.33,-0.10896278, -0.89,1.33,-0.38136974, -2.49,3.34,1.4573772, -2.83,8.01,5.938472, -2.34,17.2,13.375181, -2.11,5.18,4.8216033, -7.78,14.37,0.61291564, 0.34,8.24,-1.2258313, 1.5,8.39,0.50395286, -1.46,8.92,1.607201, -1.95,6.59,0.8036005, -0.04,7.46,0.84446156, -0.91,9.85,2.7240696, 0.46,10,0.9942854, 0.46,12.87,0.9942854, -0.19,14.52,2.8330324},
                                       {0.76,12.6,0.61291564, -2.03,12.68,-2.2609777, -5.56,13.67,2.3018389, 2.07,10.57,1.4982382, 0.23,5.22,-0.08172209, -1.95,2.6,0.10896278, -2.03,3.68,0.5720546, -3.21,6.74,2.6423476, -1.61,15.32,13.252599, -0.19,9.04,6.8237944, -4.44,15.85,1.6889231, -4.37,4.29,0.040861044, 1.92,12.03,-1.1849703, -1.31,8.77,1.7570249, -2.03,5.98,0.61291564, -0.27,7.86,0.8036005, -0.5,8.69,1.6889231, 0.08,10.46,2.6832085, 2.26,12.26,1.1849703, -1.46,14.06,1.9885708, 0.23,12.76,0.50395286, -3.83,11.92,-2.3699405, -6.02,14.71,2.0294318, 0.93,10.08,2.2201166, 1.76,5.52,0.61291564, -1.31,1.88,-0.14982383, -1.92,3.49,1.4165162, -3.06,7.01,3.636633, -3.6,15.66,12.980191, -0.84,8.81,6.8237944},
                                       {-4.75,16.28,1.1168685, -2.91,3.72,-0.5720546, 2.26,11.99,0.27240697, -1.5,7.4,1.7978859, -1.8,7.08,1.1849703, -0.89,8.16,1.9477097, 0.8,8.47,1.5390993, -0.11,9.62,1.3756552, 0.72,12.76,1.0351465, -0.08,14.21,1.8387469, 0.04,13.59,1.4165162, -2.37,11.3,-2.2201166, -6.43,14.44,1.4573772, -0.65,10.5,1.3756552, 2.34,5.9,0.61291564, -0.72,1.61,0.313268, -1.73,3.11,1.607201, -2.49,6.63,3.8681788, -3.76,16.4,12.980191, -0.72,7.5,7.43671, -4.79,13.4,-0.6946377, -3.21,8.47,0.9942854, 2.6,8.24,-0.6946377, -0.46,9.62,1.607201, -2.37,6.17,0.7218784, -0.08,7.7,-0.040861044, -1.14,10.04,2.6832085, 0,10.08,1.0760075, 1.99,12.95,1.2666923, -0.42,14.52,2.6014864},
                                       {0.34,11.45,-0.29964766, -5.63,14.29,-1.1849703, -4.21,13.21,2.5606253, 3.49,9.38,2.152015, -0.08,3.38,-1.0351465, -1.73,2.11,0.313268, -2.11,3.68,1.6889231, -3.21,10.08,5.5571017, -0.91,14.02,12.680544, -1.33,7.21,2.152015, -7.31,17.47,1.4982382, 1.04,3.41,-2.5606253, 0.15,10.27,1.3756552, -2.22,7.89,1.879608, -0.53,7.12,-0.08172209, -0.5,9.7,2.7921712, 0.19,9.7,2.7921712, 1.46,10.38,1.0351465, -0.38,13.29,1.6480621, 0.04,13.95,1.334794, -1.38,11.92,-1.525479, -6.74,16.17,0.313268, -1.31,11.18,2.7240696, 2.98,6.51,0.92618364, -0.95,1.95,-0.50395286, -1.65,2.68,1.0351465, -2.87,5.33,2.1792557, -4.37,15.43,10.378705, -0.38,9.47,10.038197, -3.34,13.76,-0.040861044},
                                       {-3.76,8.77,1.607201, 1.84,8.08,-2.5606253, -0.38,10.76,2.7649305, -1.92,5.86,0.3405087, 0.15,7.55,0.42223078, -0.91,9.43,2.0294318, 0.89,10.04,2.2609777, 2.26,11.96,0.88532263, -1.69,13.95,1.6889231, 0.11,12.68,0.46309182, -4.52,12.18,-1.1168685, -5.05,15.09,1.334794, 1.69,11.18,3.336985, 1.31,4.9,-0.14982383, -1.57,1.61,-0.42223078, -1.76,3.38,2.1111538, -2.41,6.93,3.445948, -3.98,16.59,12.299174, -2.87,8.73,6.851035, -3.87,15.4,1.8387469, -2.34,3.64,-1.4982382, 1.99,12.83,0.95342433, -1.95,6.85,1.6480621, -1.12,7.86,0.9942854, -0.34,8.28,1.6889231, 1.04,8.54,1.6480621, -0.38,9.04,1.4165162, 1.65,11.6,1.1849703, -0.3,13.06,1.0760075, -0.95,13.95,1.3756552},
                                       {-1.95,11.03,-1.1168685, -6.4,14.56,0.313268, -1.95,12.07,3.1054392, 2.45,7.5,1.2666923, -1.18,1.73,-0.14982383, -1.18,3.06,1.9477097, -1.42,4.71,2.6014864, -3.36,11.75,8.240311, -1.31,13.02,10.460427, -2.34,7.08,3.255263, -6.89,17.97,0.61291564, 1.23,2.79,-1.920469, -1.14,10.65,1.2666923, -1.14,9.04,1.5390993, -0.15,6.78,-0.8036005, -0.3,8.81,0.9942854, -0.04,9.58,2.6832085, 1.46,10.04,1.334794, 0.42,12.87,1.607201, -1.23,13.21,1.0760075, 0.04,12.6,-0.7627395, -8.05,15.94,0.040861044, 0.53,11.84,3.5957718, 3.45,6.89,0.84446156, -0.95,2.41,-0.29964766, -1.8,3.41,1.0351465, -2.98,4.99,1.7297841, -3.49,12.53,8.281172, 0.38,12.37,10.841797, -2.37,10.15,3.6774938},
                                       {-4.33,14.37,1.2258313, 0.27,3.45,-3.0237172, -0.34,13.29,2.7649305, -3.02,6.63,1.4982382, -0.04,7.5,-0.040861044, -0.34,8.2,1.2666923, -0.53,9.58,2.982856, 1.04,9.89,0.8036005, 1.99,12.72,1.6889231, -0.15,14.14,1.2666923, -2.37,12.76,-0.10896278, -8.39,14.9,0.19068487, -1.33,11.11,2.8738933, 3.17,7.93,1.4982382, -0.99,2.64,-0.27240697, -2.34,3.53,1.0760075, -2.64,4.82,1.7570249, -2.96,9.51,6.891896, -1.76,15.17,12.340035, -5.01,12.53,1.4573772, -2.07,7.93,0.38136974, 1.69,8.35,-2.9556155, -3.15,10.19,2.9556155, -0.19,7.74,-0.88532263, -0.15,7.82,0.95342433, 1.04,9.38,1.7297841, 0.65,9.66,2.070293, 1.46,12.53,1.607201, -1.46,13.14,2.4925237, 0.23,10.84,0.040861044},
                                       {-6.63,16.21,-1.920469, -5.94,12.64,2.1792557, 3.38,9.72,2.4925237, -0.8,4.56,-0.38136974, -1.18,1.84,1.0351465, -0.3,2.26,0.6537767, -1.76,8.39,5.434519, -2.56,17.58,14.818938, -3.49,3.53,2.8738933, -7.93,16.97,0.23154591, 1.31,4.6,-1.7978859, -1.8,7.7,1.56634, 0.19,7.35,0.19068487, -0.65,7.7,1.1168685, 0.53,10.15,2.982856, 2.49,10.61,1.0760075, -1.8,12.79,1.4573772, -0.53,13.95,1.879608, -0.46,11.84,-1.3756552, -7.44,15.32,-0.14982383, -1.99,10.88,2.7921712, 2.87,7.86,1.4165162, -1.31,2.15,-0.38136974, -1.88,3.17,1.4982382, -2.14,4.6,2.6014864, -2.83,12.22,9.656827, -2.49,12.76,9.847511, -4.99,16.51,1.9477097, -4.02,2.53,-0.040861044, 2.76,12.53,-0.88532263},
                                       {-1.38,7.46,1.7297841, -1.8,6.24,0.9942854, -0.99,9.85,1.4982382, 0.19,7.67,1.5390993, 0.69,8.77,1.7978859, 0.93,11.26,1.1168685, -0.61,12.98,1.7570249, -0.76,14.18,3.0645783, 1.5,12.07,-0.38136974, -6.32,13.8,-0.9125633, -3.79,11.69,2.7649305, 2.68,7.93,1.6480621, -0.42,3.95,-0.50395286, -1.46,2.87,0.27240697, -2.64,4.44,2.7649305, -3.53,11.18,7.3141265, 0.57,12.41,11.413852, -5.86,14.25,-2.5333846, -1.08,4.86,2.1111538, -0.11,7.67,-0.9942854, 0.11,12.15,1.9477097, -1.57,5.56,-1.0760075, -1.53,7.08,0.6946377, -0.61,9.7,2.3018389, 2.11,10.42,1.56634, 0.93,12.87,1.6480621, -0.27,14.02,2.3699405, -0.3,12.18,-0.46309182, -6.47,14.71,-0.9942854, -3.95,12.53,2.4516625},
                                       {3.3,9.38,1.6480621, -0.99,3.6,-0.14982383, -1.65,2.15,0.61291564, -2.3,3.64,1.9885708, -1.61,9.58,5.9793324, -1.69,16.89,13.6748295, -3.21,6.13,2.9556155, -7.21,15.36,2.152015, 1.14,5.86,-2.7921712, 0.95,10.5,2.070293, -1.99,7.4,1.4573772, -1.33,7.44,0.7627395, -0.65,7.46,1.2666923, 0.08,9.7,2.3699405, 0.46,10.69,1.2666923, 0.5,13.4,1.2666923, -0.04,15.66,2.070293, 0.61,11.88,-0.84446156, -7.16,12.76,-1.3075534, -3.15,11.18,1.920469, 2.15,9.08,2.1111538, 0.23,3.53,0.313268, -1.04,2.11,0.14982383, -2.72,4.52,3.1463003, -3.17,9.85,6.742072, -0.76,15.89,12.299174, -3.11,7.06,4.399372, -5.52,15.79,0.92618364, -0.53,3.3,-2.4516625, 0.93,13.21,2.982856},
                                       {-1.27,7.06,1.5390993, -1.31,6.89,0.8036005, -0.15,7.59,0.23154591, -1.46,9.77,2.8330324, 0.5,10.5,1.2666923, 1.88,13.25,1.7978859, -0.04,14.41,2.6832085, 0.72,12.18,-1.7570249, -7.78,15.47,-0.08172209, -3.17,11.03,1.6480621, 3.95,7.59,1.334794, -0.38,3.57,-0.6537767, -1.92,2.45,0.5720546, -2.79,4.67,1.6889231, -3.3,13.02,9.507003, -0.8,12.68,10.56939, -4.14,12.76,1.6480621, -4.48,8.01,1.6480621, 3.17,8.92,-2.8330324, -0.91,9.89,2.9556155, -1.95,6.44,0.53119355, -1.12,8.31,0.10896278, -0.69,8.47,1.2258313, 0.04,9.77,2.5606253, 2.15,11.96,1.4982382, -0.8,13.29,2.1111538, 0.15,12.41,0.313268, -4.59,13.4,-1.9477097, -5.41,13.63,1.334794, 2.64,10,2.7649305},
                                       {1.61,5.18,0.19068487, -1.27,2.11,-0.7627395, -2.37,4.1,1.334794, -2.91,7.35,4.0180025, -4.29,16.59,13.375181, 0.31,6.78,6.238119, -1.99,6.74,-0.23154591, 0.72,9.47,0.23154591, -1.5,9.62,2.1792557, -1.33,6.63,0.14982383, 0.31,7.4,1.334794, -0.42,9.08,1.8387469, 0.61,10.53,1.8387469, 0.93,12.98,1.7570249, 0.11,14.52,1.9885708, 0.04,11.84,-0.6537767, -6.28,14.98,-0.7218784, -3.76,13.02,2.982856, 3.68,8.39,1.7297841, -0.04,2.96,-0.8036005, -1.38,2.03,0.08172209, -3.34,4.37,2.3426998, -3.76,11.65,7.273266, -0.19,14.1,12.408136, -1.04,6.7,3.0237172, -7.46,17.05,0.10896278, 1.23,3.79,-2.7240696, -0.53,10.04,1.879608, -1.61,8.39,1.4982382, -0.5,6.63,-0.7218784},
                                       {-0.95,9.53,1.920469, 0.34,10.53,2.9147544, 2.07,10.92,1.1441092, -0.57,13.48,1.9477097, 0.31,14.25,0.9942854, -1.99,11.75,-1.6480621, -6.63,15.28,0.313268, -1.95,10.95,2.6423476, 2.91,5.9,1.0760075, -0.53,2.03,-0.6537767, -2.07,2.83,0.84446156, -3.02,6.02,3.7864566, -4.18,16.66,12.721405, -0.15,6.63,7.504812, -5.33,11.88,-1.2258313, -1.84,10.46,1.2258313, 0.76,6.09,-0.50395286, -0.46,10.92,1.1168685, -1.95,6.51,0.10896278, -0.76,7.63,1.0760075, -0.15,9.62,2.3018389, 0.27,10.19,1.2258313, 1.8,12.79,1.7570249, 0,14.41,1.7297841, 0.04,12.45,-0.6537767, -7.35,14.56,-1.2258313, -4.63,12.07,2.0294318, 3.11,8.66,2.4108016, 0.46,3.38,-0.29964766, -1.65,2.11,-0.10896278},
                                       {-2.75,4.25,2.4925237, -4.52,10.73,7.014479, -1.14,15.21,12.639683, -3.76,10.38,2.5333846, -5.01,10.95,0.84446156, 1.38,6.4,-3.255263, -0.3,11.54,3.0645783, -1.92,6.51,0.95342433, -0.89,8.01,1.0351465, 0,7.46,0.53119355, -0.69,10.76,3.759216, 1.12,10.76,0.95342433, 0.31,13.44,2.3426998, -0.15,13.53,2.5333846, 0.31,11.22,-1.7570249, -7.16,16.47,1.3075534, -2.64,11.18,1.9885708, 3.26,5.86,1.7297841, -0.42,2.96,-0.95342433, -2.07,2.34,0.46309182, -3.79,5.41,2.5333846, -3.41,15.79,11.413852, -1.08,9.7,9.615966, -4.29,14.82,-2.2201166, -3.83,6.51,1.920469, 2.15,8.85,-1.7297841, -0.19,9.81,2.4925237, -2.07,6.32,0.88532263, -0.99,7.5,1.334794, 0.31,8.73,1.2666923},
                                       {-0.8,10.84,2.3699405, 1.42,12.6,1.7570249, 1.27,14.14,2.9556155, 0.76,12.11,-0.19068487, -6.13,13.91,-1.2666923, -5.28,13.14,1.7297841, 3.02,9.53,2.2609777, 0.84,3.45,-0.50395286, -1.69,1.95,-0.27240697, -3.26,4.25,1.5390993, -4.02,8.62,4.5219555, -0.91,18.31,15.4046135, -1.73,6.09,1.7978859, -7.16,17.27,1.0351465, 1.38,4.48,-3.173541, -1.8,10,2.1111538, -2.26,7.55,0.5720546, 0.11,7.16,-0.46309182, -1.12,9.62,2.4516625, 0.61,9.89,2.3426998, 1.92,12.76,1.9477097, -0.72,14.48,2.070293, -0.91,12.91,-0.3405087, -6.97,14.06,-1.334794, -4.18,12.76,2.982856, 4.4,9.23,1.5390993, 0.11,2.34,-0.23154591, -2.3,1.61,-0.53119355, -3.02,3.6,2.4108016, -5.24,10.34,4.140586},
                                       {-6.32,14.25,-0.10896278, 2.53,5.13,-3.0645783, -0.46,11.37,3.568531, -1.46,6.97,1.607201, -0.89,7.01,1.2666923, -0.38,7.59,0.6946377, -0.76,9.58,2.3018389, 1.08,11.14,1.5390993, 1.12,13.48,1.9477097, -0.57,14.02,1.607201, -1.84,11.45,-1.9477097, -6.66,16.21,1.2666923, -1.18,11.22,2.3699405, 2.64,5.75,1.3075534, -0.8,2.45,-0.84446156, -1.46,1.61,-0.040861044, -4.02,5.83,2.3018389, -3.21,18.73,13.565866, -1.65,6.59,7.3549876, -3.64,16.09,-0.6537767, -4.06,4.79,0.6946377, 2.07,9.38,-1.7978859, -0.61,9.81,2.3018389, -2.26,5.94,0.50395286, 0.04,8.35,0.313268, -1.61,10.5,3.8681788, 0.57,9.3,0.61291564, 1.69,12.83,1.4573772, -0.19,14.48,2.3018389, 0.46,12.37,-0.6537767},
                                       {-6.47,12.76,-1.3075534, -4.29,12.79,2.152015, 2.22,10,2.152015, 0.89,4.25,0.10896278, -1.73,2.64,-0.08172209, -2.75,3.95,1.334794, -3.11,9.51,5.284695, -2.37,15.64,13.824653, -2.53,8.05,3.3778462, -5.86,16.02,1.0760075, 0.46,4.02,-3.214402, 0.57,12.07,2.1111538, -2.37,7.08,1.6889231, -0.57,7.59,0.61291564, -0.04,7.67,0.7218784, -0.91,10.5,3.8273177, -0.11,9.77,0.88532263, 2.07,13.02,1.7297841, 0.08,13.72,2.8738933, 0.76,10.46,-1.4165162, -6.17,15.17,-1.0760075, -4.14,13.8,1.7297841, 3.11,9,3.214402, 0.57,3.41,-1.1168685, -1.69,2.53,0.42223078, -2.79,3.49,1.1168685, -4.71,10.65,6.0882955, -2.07,15.75,13.293459, -0.53,5.79,3.636633, -7.46,15.17,-0.7218784},
                                       {0.69,5.71,-2.4925237, -1.04,8.73,1.2666923, -1.88,9.47,1.1441092, -0.3,7.46,-1.2666923, -0.42,8.96,2.152015, 0.23,9.43,2.9147544, 1.73,10.57,1.4573772, -1.18,13.14,2.3699405, 0.42,13.4,2.1111538, 0.38,11.65,-0.9125633, -6.21,15.4,-0.3405087, -2.26,12.18,3.405087, 2.6,7.78,1.607201, -1.04,2.83,-0.14982383, -0.95,2.11,0.46309182, -2.75,3.38,1.920469, -3.11,13.14,7.1234417, -2.18,13.72,12.14935, -2.45,7.55,2.8330324, -5.43,15.02,0.5720546, 2.11,5.94,-2.3426998, -0.8,10.23,2.3699405, -2.87,7.63,1.879608, -0.34,7.08,0.3405087, -0.23,7.89,0.46309182, -0.65,9.77,2.7649305, 0.53,10.76,1.1849703, 0.93,13.59,2.3699405, -0.04,14.18,1.920469, -0.84,11.14,-1.7297841},
                                       {-6.89,16.09,0.95342433, -1.04,11.5,2.7240696, 3.57,5.56,1.3075534, -0.27,2.37,-0.61291564, -2.45,3.26,0.7218784, -4.29,6.02,2.6832085, -3.36,16.02,11.495573, -1.65,12.98,9.112013, -4.25,12.95,-1.6480621, -0.72,1.12,-2.9147544, -1.76,5.37,1.607201, -0.15,7.86,1.1441092, -0.84,7.59,0.84446156, -0.95,10.34,3.0645783, 0.61,10.5,1.2258313, 0.69,13.57,1.6889231, 0.15,15.47,1.4982382, -1.08,11.5,-1.3075534, -7.46,14.18,0.10896278, -2.07,11.54,1.920469, 2.76,6.93,1.56634, -2.03,3.17,1.56634, -2.64,5.67,3.5276701, -4.29,15.47,11.686258, -0.04,7.7,8.008764, -2.96,12.91,1.334794, -3.91,6.21,0.7218784, 1.46,8.96,-0.50395286, -0.04,10.12,1.7297841, -3.06,5.79,0.92618364},
                                       {-0.89,8.47,0.95342433, 0.04,9.08,2.2609777, 0.11,10.15,1.6889231, 0.8,12.53,1.2666923, -0.46,14.33,2.4516625, -0.04,12.37,1.6889231, -1.73,10.61,-1.7978859, -5.82,15.32,2.3699405, -0.15,11.11,2.3018389, 1.99,4.94,0.6537767, -1.18,2.96,0.040861044, -2.49,3.17,1.879608, -3.49,6.32,2.3699405, -3.76,15.13,11.795221, 0.27,9.58,8.308413, -3.49,15.02,0.23154591, -4.63,4.48,0.88532263, 1.99,10.8,-0.88532263, -0.42,8.62,2.1792557, -1.65,6.51,0.5720546, -0.69,7.67,0.7218784, -0.69,9.43,2.2609777, -0.95,10.5,1.607201, 2.03,12.91,1.6480621, 0.42,14.41,2.5333846, -0.08,12.15,-0.0, -4.86,11.88,-1.525479, -4.86,14.1,1.6480621, 1.73,10.38,2.2201166, 1.23,4.48,-0.19068487},
                                       {-2.22,2.49,0.42223078, -1.8,3.41,1.3756552, -3.72,8.35,3.568531, -2.98,16.93,13.443283, -1.38,6.63,5.6660647, -4.33,15.79,0.38136974, -2.79,4.63,-0.42223078, 1.31,11.18,0.46309182, -1.04,8.43,1.7978859, -1.61,6.85,0.50395286, -0.11,7.67,1.2666923, -0.23,9.19,2.1111538, 0.53,10.23,2.0294318, 0.95,12.64,1.2666923, -0.99,14.71,1.7297841, 0.04,12.3,0.19068487, -6.59,13.29,-1.2666923, -2.72,13.63,2.1792557, 2.6,10.27,2.7921712, -0.57,2.34,-0.5720546, -1.53,1.84,0.6537767, -2.49,3.79,1.9885708, -2.41,8.77,5.407278, -3.15,17.12,12.912089, -2.3,6.97,5.7886477, -5.13,15.13,0.53119355, -1.14,4.71,-1.9885708, 0.38,11.22,1.3075534, -0.95,7.82,1.4982382, -1.23,6.63,-0.08172209},
                                       {-0.46,8.73,1.2258313, 0.19,9.89,3.2961242, 0.8,9.38,1.1168685, 0.76,13.44,1.5390993, -0.5,13.72,2.8330324, 0.23,10.38,0.42223078, -2.96,13.33,-2.5606253, -5.43,15.05,3.0237172, 1.23,10.12,2.9556155, 0.38,4.21,-0.23154591, -1.42,2.18,-0.10896278, -1.8,3.17,0.95342433, -3.45,9.28,4.8216033, -2.07,17.77,14.1787815, -2.45,6.78,4.399372, -5.05,15.94,0.84446156, -0.27,3.21,-2.8738933, 0.46,12.76,2.070293, -2.11,7.01,1.4573772, -0.8,6.74,-0.3405087, -0.69,8.43,1.2258313, -0.15,10.08,3.255263, 1.38,9.89,1.1441092, -0.19,13.57,1.3756552, -0.69,14.1,2.6014864, 0.11,11.03,0.10896278, -4.33,14.14,-2.1792557, -4.4,13.57,3.255263, 1.88,9.58,2.4925237, 0.31,3.68,-0.61291564},
                                       {-1.12,1.61,-0.46309182, -2.98,3.99,1.7978859, -3.15,9.81,6.510526, -1.23,15.98,13.756551, -1.04,6.51,4.8216033, -6.93,16.17,0.42223078, 1.46,5.18,-2.4516625, -0.65,9.77,1.7978859, -1.88,7.55,1.334794, -1.38,6.85,0.14982383, -1.04,8.58,2.0294318, 0.61,13.67,2.1111538, -0.57,14.18,2.152015, 0.72,10.92,-1.56634, -7.63,15.55,-0.84446156, -1.38,10.73,1.56634, 2.53,5.79,0.6537767, -1.99,2.83,-0.38136974, -2.37,2.72,0.8036005, -2.83,6.05,3.0645783, -3.15,16.78,14.2877445, -1.61,8.77,7.43671, -4.1,16.66,2.152015, -4.59,1.46,-0.42223078, 3.64,14.6,-0.19068487, -1.53,6.66,1.879608, -1.88,6.09,1.0351465, -1.27,9.08,1.920469, 0.57,7.4,0.84446156, -0.3,9.58,1.7570249},
                                       {1.38,12.53,1.6889231, -0.5,13.57,2.1792557, -0.04,13.1,0.88532263, -3.15,12.45,-1.9477097, -6.63,15.05,1.2258313, -0.23,10.53,2.4516625, 1.88,5.28,-0.08172209, -1.38,1.92,-0.19068487, -2.07,3.38,1.6889231, -2.68,7.67,4.372132, -3.21,17.08,14.982383, -0.53,4.99,3.336985, -7.97,15.85,0.040861044, -0.46,4.52,-1.4982382, -0.15,8.2,0.19068487, -1.04,10.04,1.4573772, -1.33,6.05,-0.95342433, -0.57,9.3,1.9477097, 0.04,10.23,3.2961242, 0.93,9.66,1.0760075, 0.15,13.02,2.1111538, -0.53,13.21,2.7240696, 0.27,10.99,-1.2666923, -6.4,16.09,-0.61291564, -3.72,12.34,2.9147544, 3.57,7.46,2.1792557, -0.19,3.49,-0.50395286, -2.22,2.53,-0.10896278, -3.49,3.68,1.7978859, -3.76,11.73,7.8180795},
                                       {-0.8,14.18,12.639683, -4.1,9.77,1.6889231, -4.67,12.83,1.1168685, 1.65,6.44,-3.636633, -0.76,11.14,2.9147544, -1.84,6.44,0.5720546, -0.38,7.46,0.10896278, -1.18,9.47,1.9885708, 0.31,10.23,2.8330324, 1.73,10.61,1.2258313, -0.19,13.95,2.152015, 0.31,13.99,0.8036005, -3.57,11.56,-1.4982382, -6.32,15.4,0.7218784, -1.08,11.11,2.8738933, 2.68,5.18,1.1849703, -0.84,2.3,-0.42223078, -1.38,2.6,1.2666923, -3.26,6.05,3.0237172, -4.14,17.43,11.495573, -1.33,5.94,7.668256, -2.83,11.37,1.3075534, -4.21,12.34,0.8036005, 1.31,6.82,-1.0760075, -0.69,10.34,1.8387469, -2.26,7.12,0.7218784, -0.04,7.5,0.3405087, -0.3,9,1.4165162, -0.53,10.15,2.5333846, 1.76,12.3,1.3756552},
                                       {-0.84,13.82,1.7570249, 0.31,13.18,0.53119355, -4.75,12.64,-1.3075534, -4.37,14.29,1.5390993, 1.42,10.76,3.214402, 1.65,4.56,0.23154591, -0.72,1.38,-0.29964766, -2.49,3.91,1.1849703, -4.37,7.31,2.8330324, -4.67,16.74,13.252599, 0.38,8.16,7.014479, -3.57,13.63,-0.040861044, -4.63,6.82,1.0760075, 1.84,8.69,-1.6889231, -0.04,10.12,2.1111538, -2.26,6.44,0.5720546, -0.8,8.12,1.2258313, -0.65,9.23,2.152015, -0.08,9.92,2.1111538, 1.33,11.73,1.1441092, -0.61,13.72,2.3426998, 0.61,13.29,0.5720546, -5.67,12.87,-2.3018389, -5.52,13.57,2.0294318, 1.92,9.72,2.4108016, 0.5,3.26,-0.53119355, -2.07,2.79,0.27240697, -2.87,4.99,2.0294318, -4.71,10.27,6.469665, -0.08,13.06,11.836082},
                                       {-3.57,14.6,0.84446156, -2.87,3.21,0.92618364, 1.5,10.42,-1.0351465, -0.61,8.96,2.7240696, -1.57,6.78,0.5720546, -0.89,7.67,1.1168685, 0.5,8.54,0.95342433, -0.42,10.12,2.3018389, 0.93,12.41,1.607201, -0.11,14.18,2.4925237, 0.42,12.72,0.46309182, -5.18,13.38,-1.3075534, -5.18,13.87,1.7978859, 2.72,9.92,2.6423476, 1.31,4.44,-0.84446156, -1.99,2.45,0.3405087, -2.49,3.38,1.0760075, -4.06,7.67,3.718355, -2.79,16.82,14.206022, -2.18,10.19,6.1700177, -4.79,13.4,0.313268, -0.19,3.34,-3.1054392, 0.04,13.57,2.1111538, -1.57,6.51,1.1849703, -0.61,7.21,-0.19068487, -1.04,8.73,1.4165162, 0.72,10.12,3.1463003, 0.27,9.23,1.1441092, 0.5,13.53,1.5390993, -0.91,14.56,2.3426998},
                                       {0.69,11.5,-0.46309182, -6.63,14.29,-1.6480621, -3.64,12.6,2.4925237, 2.91,9.19,2.3018389, -0.15,3.38,-0.50395286, -1.73,1.84,-0.10896278, -2.18,4.06,2.2201166, -3.72,10.88,7.082581, -1.46,14.6,12.571581, -1.31,7.06,3.9090397, -6.24,16.97,0.88532263, 0.61,3.68,-3.0237172, -1.04,10.8,2.0294318, -1.99,7.78,1.7978859, -0.3,7.27,-0.040861044, -0.8,7.86,0.95342433, -0.65,9.96,3.173541, 0.76,10.27,1.334794, 1.27,13.21,1.607201, -0.11,14.37,2.5606253, 0.15,10.88,-0.6946377, -6.51,15.02,-1.1849703, -4.71,12.98,2.2609777, 2.64,8.89,2.982856, 0.84,3.11,-0.95342433, -1.14,1.38,0.08172209, -2.68,3.79,1.6480621, -3.79,10.69,5.706926, -2.6,16.7,13.906375, -2.37,6.93,4.372132},
                                       {-4.21,14.6,0.92618364, -1.57,4.18,-1.920469, 1.31,12.41,1.6889231, -1.84,7.08,1.6480621, -1.33,6.55,-0.14982383, -0.69,7.89,0.84446156, -0.19,10.69,3.445948, 0.5,9.85,0.88532263, 1.27,13.99,1.7978859, 0.04,14.79,2.7649305, 0.5,11.18,-1.3756552, -7.16,15.24,-0.7627395, -3.83,12.07,2.5606253, 3.41,8.08,2.1111538, -0.3,3.06,-1.2666923, -1.92,1.38,-0.61291564, -3.21,3.79,1.7570249, -4.75,13.82,8.853226, -0.61,12.64,12.14935, -2.75,8.81,2.4516625, -5.86,14.33,1.0760075, 1.18,5.01,-3.568531, -0.61,11.07,2.4108016, -1.95,6.93,0.88532263, -0.27,7.21,-0.7627395, -1.38,9.53,1.7570249, 0.65,10.27,2.9556155, 2.26,10.65,1.2258313, -1.33,13.91,2.7240696, -0.42,13.02,1.920469},
                                       {-0.53,13.29,-2.6832085, -7.74,16.55,2.1111538, -0.69,10.19,2.7649305, 2.3,4.86,0.5720546, -0.53,2.68,-1.2666923, -2.14,1.95,0.3405087, -3.57,7.35,4.671779, -3.6,17.67,14.328606, -3.21,6.89,5.134871, -5.2,16.51,1.4982382, -0.72,4.02,-2.7240696, 0.99,13.25,1.7978859, -2.07,6.13,1.4165162, -1.23,7.16,0.23154591, -0.99,8.35,1.9477097, 0.8,9.72,3.1463003, 0.42,9.3,0.7627395, 0.57,13.14,1.4982382, 0.23,14.98,2.4925237, 0.19,11.84,0.19068487, -5.56,13.48,-1.4165162, -4.94,12.26,2.9556155, 2.96,10.23,1.7978859, 0.04,3.64,-0.46309182, -1.65,2.03,-0.38136974, -2.83,3.26,1.4573772, -3.64,9.34,4.903325, -1.88,17.12,14.982383, -0.57,5.6,4.671779, -6.4,17.88,-0.6946377},
                                       {-0.72,2.87,-1.8387469, -0.61,10.46,1.56634, -1.31,9.04,1.607201, -0.76,6.32,-0.19068487, -1.08,7.78,1.2666923, -0.61,9.72,2.6423476, 0.31,10.8,1.9477097, 2.3,13.25,1.879608, -0.5,14.44,2.1111538, -1.27,11.84,-1.3756552, -6.82,15.64,0.23154591, -1.92,11.73,2.1792557, 3.53,5.94,1.4165162, -0.5,3.06,-0.8036005, -2.75,2.79,0.8036005, -3.95,5.6,2.070293, -4.06,15.09,11.114203, 0.46,9.51,9.193735, -3.49,13.25,0.313268, -4.67,9.28,1.7297841, 1.65,7.82,-3.1054392, -0.76,10.42,2.4108016, -1.76,6.4,0.27240697, -0.89,7.89,1.4165162, 0.08,9.43,2.7240696, 1.08,9.81,2.2201166, 2.3,12.15,1.4573772, -1.31,14.56,2.4108016, -0.34,12.3,0.84446156, -4.29,12.37,-1.7297841},
                                       {-5.52,14.29,2.2201166, 1.33,9.89,2.8330324, 1.76,4.02,0.27240697, -1.08,2.45,-0.29964766, -2.22,3.06,1.4982382, -3.76,8.01,4.140586, -3.87,17.62,13.824653, -2.6,7.08,5.7886477, -3.72,15.94,0.27240697, -1.65,4.14,-1.525479, 0.57,11.96,1.3756552, -1.73,7.21,1.4982382, -0.8,6.78,-0.0, -0.3,8.01,1.0760075, -0.27,9.72,2.5606253, 0.04,10.53,1.56634, 1.42,13.53,1.6480621, 0.19,15.32,2.0294318, -1.23,11.54,-1.1441092, -7.5,14.79,-0.040861044, -2.83,11.3,2.5606253, 3.68,7.16,1.8387469, -0.19,2.45,-0.42223078, -1.42,2.22,0.38136974, -2.49,4.79,2.7921712, -4.75,15.13,10.501288, -1.65,8.96,10.119919, -2.3,9.81,0.6537767, -4.71,15.32,0.10896278, 1.46,4.86,-3.445948},
                                       {-2.45,10.57,2.3699405, -1.12,7.12,0.27240697, 1.33,7.74,0.38136974, -1.14,9.89,2.7240696, -0.08,10.12,2.1111538, 2.96,12.11,1.9477097, -0.34,13.82,2.4925237, -0.08,12.22,0.42223078, -4.21,13.53,-1.4982382, -6.55,14.02,1.9885708, 1.38,10,2.7921712, 1.61,3.91,-0.5720546, -1.8,2.68,0.3405087, -1.92,3.26,1.7570249, -2.14,7.25,4.0180025, -2.98,18.01,15.050485, -5.13,10.8,3.1463003, -3.64,9.38,1.1168685, 1.73,5.41,-4.671779, -0.53,13.82,3.990762, -2.26,6.44,0.92618364, -0.11,7.25,0.14982383, -0.72,8.47,0.9942854, 0.04,9.92,3.336985, 1.38,9.92,1.2666923, 0.27,13.21,1.334794, -0.46,14.86,2.5333846, 0.84,11.84,-0.46309182, -6.55,12.95,-1.1441092, -3.06,12.03,2.070293},
                                       {2.83,9.66,2.9556155, 0.08,4.29,-0.50395286, -1.84,2.26,0.14982383, -2.6,3.95,1.879608, -4.21,9.19,5.5162406, -1.12,15.47,13.484144, -2.11,9.38,4.1814466, -6.28,14.82,1.2258313, 0.95,3.53,-3.9771416, 0.23,12.18,2.6832085, -2.3,6.93,1.7297841, -0.5,8.05,1.0760075, 0,8.28,1.6480621, -0.15,9.85,2.152015, 1.08,11.41,1.4573772, 0.15,13.72,1.7570249, -3.17,11.65,-1.4982382, -6.02,14.79,0.88532263, -1.38,10.8,2.4925237, 2.87,5.63,1.334794, -0.72,2.3,-0.53119355, -2.41,3.26,0.92618364, -4.02,7.67,4.2495484, -2.34,16.89,13.6748295, -3.06,11.45,4.1814466, -4.86,9.92,1.3075534, 0.42,4.94,-3.3642259, 1.61,14.21,2.9556155, -2.56,5.9,0.9942854, -0.5,8.12,0.6946377},
                                       {-0.46,7.44,0.23154591, -0.38,10.27,3.214402, 0.15,10.31,1.4573772, 0.5,13.18,1.7978859, -0.34,14.33,2.5333846, 0.65,11.54,-0.88532263, -6.7,15.13,-0.23154591, -2.79,11.96,2.4108016, 3.3,7.89,1.9885708, -0.5,2.68,-0.8036005, -1.5,2.34,0.313268, -2.87,4.29,2.1792557, -4.02,13.1,8.308413, -0.76,13.4,11.536434, -0.15,4.99,2.6014864, -7.01,15.66,-0.27240697, 0.08,2.91,-1.1168685, -0.65,9.28,1.1168685, -1.88,10.08,1.7570249, -0.34,6.44,-0.61291564, -0.34,8.73,1.4982382, -0.42,9.58,3.0237172, 1.76,11.3,1.4982382, 0.23,13.53,2.3426998, 0.23,13.99,0.9942854, -3.21,12.37,-1.0351465, -6.28,14.67,0.8036005, 0.34,11.26,2.7921712, 1.95,5.18,0.53119355, -1.27,2.18,0.42223078},
                                       {-1.95,2.64,1.1441092, -3.45,5.33,2.3426998, -3.95,17.5,13.102775, -2.22,7.55,7.504812, -3.53,13.29,0.53119355, -2.49,7.06,-0.14982383, 1.95,10.65,0.10896278, -1.88,8.35,2.0294318, -1.73,7.16,0.88532263, -0.53,7.21,1.1441092, 0.38,8.81,1.334794, -0.3,10.65,3.214402, 1.76,12.22,1.334794, -0.23,14.94,2.1111538, 0.23,12.95,0.5720546, -6.13,12.11,-1.56634, -4.67,13.18,2.1111538, 1.5,10.8,2.7921712, 1.5,4.18,-0.0, -1.27,1.73,-0.08172209, -2.22,3.21,1.9885708, -3.72,8.5,5.407278, -3.6,16.74,13.484144, -0.46,5.48,3.9499009, -7.4,17.58,0.6537767, 0.34,3.76,-2.070293, -0.46,10.15,1.607201, -1.38,8.89,1.9477097, -0.76,6.85,0.46309182, -0.04,7.27,1.2258313},
                                       {-0.38,9.08,2.152015, 0.57,11.26,1.920469, 0.89,12.95,1.7978859, -0.08,14.71,2.5333846, 0.27,11.45,-1.1441092, -7.35,15.05,-0.61291564, -3.15,11.69,2.2609777, 4.06,7.89,2.6832085, 0.42,2.98,-0.7218784, -1.65,2.45,-0.040861044, -3.17,4.79,2.2609777, -4.25,11.6,6.8237944, -1.84,13.87,12.299174, -1.99,12.15,4.2086873, -4.33,9.66,0.50395286, 0.08,4.6,-3.405087, 0.72,13.95,3.255263, -2.45,5.86,1.0351465, -0.5,7.55,0.46309182, -0.65,8.24,1.4982382, 0.11,9.77,2.7921712, 0.38,10.73,0.95342433, 0.95,13.21,1.7297841, -0.15,14.6,2.3426998, -0.27,11.73,-1.920469, -8.12,15.32,-0.14982383, -3.11,11.54,2.3699405, 3.11,5.13,0.27240697, -0.76,1.5,-0.53119355, -2.34,3.41,1.6889231},
                                       {-3.26,7.35,3.9499009, -3.49,18.01,15.213928, -2.87,7.67,4.5219555, -4.48,16.32,-0.040861044, 0.11,1.14,-2.9556155, -0.04,13.57,2.4108016, -1.88,7.08,1.6480621, -0.76,5.98,0.313268, -0.46,8.77,1.4573772, 0.76,9.96,3.1054392, 2.18,10.76,1.5390993, -0.46,14.75,1.7570249, -0.38,14.02,1.0760075, -6.74,12.22,-1.4165162, -5.01,14.67,1.920469, 2.79,9.96,3.636633, 1.18,3.26,-0.27240697, -1.57,0.99,-0.14982383, -2.18,2.45,1.56634, -3.6,9.04,6.0882955, -3.11,17.01,14.328606, -4.25,7.67,3.568531, -3.98,14.79,0.95342433, -0.19,3.91,-3.9090397, -1.42,11.88,2.0294318, -1.65,7.12,1.2258313, -0.34,7.82,0.84446156, 0.23,8.2,2.3699405, 0,9.85,3.636633, 1.23,9.19,1.0760075},
                                       {0.23,12.79,1.5390993, -0.38,14.98,2.152015, 0.08,11.75,-0.50395286, -6.89,13.72,-0.5720546, -3.57,13.14,2.3426998, 2.37,8.96,2.152015, 0,2.87,-0.27240697, -1.69,1.5,0.040861044, -2.64,3.53,1.9477097, -3.64,9.11,5.6252036, -3.17,17.24,14.137921, -1.69,6.36,5.5571017, -6.21,16.59,0.53119355, 0.04,3.53,-1.879608, 0.08,10.92,1.6480621, -1.76,8.5,1.8387469, -0.95,6.51,0.19068487, -0.19,7.25,0.38136974, -0.99,10.19,3.336985, 0.46,10.38,1.334794, 1.76,13.29,1.2666923, -0.69,14.86,2.2609777, -0.53,11.8,-1.7297841, -8.27,14.44,-0.040861044, -2.98,12.72,2.9147544, 5.22,7.59,2.6423476, 0.19,2.34,-0.8036005, -1.73,1.57,0.14982383, -2.72,4.06,2.6014864, -4.25,11.84,7.5865335},
                                       {-2.14,14.41,12.830367, -3.26,9.08,4.671779, -5.05,12.76,-0.84446156, 0.69,6.17,-3.2961242, -1.18,11.37,2.4516625, -1.65,6.24,1.1849703, 0.19,7.46,-0.53119355, -1.5,8.31,1.4165162, 0.5,10.69,2.7649305, 2.76,10.5,1.4573772, -0.23,14.37,1.4982382, -0.5,14.44,1.3075534, -3.79,11.56,-1.2258313, -6.09,15.4,0.23154591, -0.19,11.88,3.173541, 3.6,6.82,0.9942854, -1.46,0.72,-1.2666923, -1.92,1.33,0.8036005, -2.11,4.48,2.5606253, -5.13,16.7,12.639683, -0.38,7.86,9.724928, -1.76,10.88,1.334794, -7.01,12.26,2.4108016, 1.57,6.21,-3.405087, 0.04,11.73,2.3018389, -3.06,6.09,2.0294318, -0.23,7.82,0.38136974, -0.27,6.55,0.6946377, -0.11,10.5,3.5276701, 1.76,11.14,1.5390993},
                                       {0.46,14.82,2.0294318, -0.08,15.47,0.53119355, -6.51,12.91,-2.1111538, -5.79,12.87,1.334794, 0.89,10.76,2.4516625, 2.15,5.05,0.313268, -0.57,0.95,-0.88532263, -1.73,2.79,0.95342433, -2.98,6.89,4.7126403, -5.48,18.5,15.091345, -0.99,4.6,4.140586, -6.74,17.69,0.46309182, -0.08,2.11,-2.8330324, -0.38,9.96,1.56634, -1.84,8.47,1.879608, 0.11,7.27,-0.3405087, -0.27,8.24,1.4982382, -0.19,9.38,2.982856, 0.65,9.53,1.3756552, 0.46,12.76,1.920469, -0.72,13.59,0.7627395, -2.37,13.33,-0.6946377, -5.82,14.98,1.1168685, 1.42,10.69,2.6832085, 0.57,4.48,-0.0, -0.91,1.27,-0.29964766, -1.53,2.6,1.3756552, -3.3,7.46,4.0588636, -4.48,17.39,13.184497, -2.91,7.35,7.0553403},
                                       {-4.52,16.66,0.6537767, -1.76,2.37,-2.2609777, 1.69,14.75,1.6480621, -2.83,5.6,0.9942854, -0.04,8.47,0.61291564, -0.61,7.12,0.88532263, -0.15,10.92,3.8681788, 1.23,10.19,1.334794, 0.89,13.44,1.9885708, -0.11,14.1,1.920469, -1.27,11.56,-1.0760075, -6.85,15.83,0.23154591, -1.53,11.6,3.0237172, 2.6,6.66,1.607201, -1.08,2.18,-0.6946377, -1.46,2.22,0.7627395, -2.96,4.9,2.0294318, -4.94,16.17,11.836082, -1.31,8.73,8.539958, -3.06,12.79,0.92618364, -3.76,9,0.95342433, 2.11,9.47,-1.7297841, -1.84,9.23,2.3699405, -2.07,6.59,0.7627395, -0.11,7.5,1.1849703, 0.76,8.96,2.4516625, -0.04,10.34,2.7921712, 1.38,11.56,1.3756552, -0.04,14.18,2.6014864, -0.19,12.07,0.7218784},
